0.6973728
0.17974731
0.1802453
-0.8018961
0.49723622
-0.65651745
-1.4631554
-0.21878126
-0.55652857
2.6133423
-0.8925655
-0.16962138
-0.22858073
-0.4402486
-2.2959368
1.5720196
1.2805293
-1.9624915
1.1752946
-0.6602374
-0.12304755
0.29496247
0.28965756
-0.30849993
0.3630524
-0.75007194
-1.5597687
0.23927432
-0.8483226
-1.6973724
-2.724052
-0.89217216
-0.7980148
-1.0257288
3.057043
1.6806223
0.54381275
0.9689987
0.7899103
-0.62787116
1.8111753
0.11418991
0.13098128
-0.91116863
0.34085664
-0.81500185
1.4806882
-0.20851296
-0.96792704
-1.7133708
0.81662536
-1.1807832
-1.003166
-0.28811395
-1.968041
-0.5690169
1.4787189
0.7466281
2.1752005
-0.4451946
-0.69620955
-0.19637926
0.35783857
0.114795335
0.45474055
-0.2565766
-0.29434294
0.3266384
-0.25372437
-1.4379005
-1.1707673
-0.3700726
0.2749442
-0.11053328
-1.1332924
-1.4549713
-3.0904944
0.74750656
2.283319
-0.054180454
-0.7335494
-0.21078753
0.3957221
-1.030043
0.24802656
-0.61124736
2.4211643
0.26113963
-0.65055364
1.4227996
0.54269534
-0.21106158
-0.53479904
-1.4888891
1.8960136
-2.3577893
0.05569882
-1.8730638
-0.8971406
-0.37293354
-0.7033049
-0.0532501
-0.077273466
-0.40407214
-0.14207971
0.26547498
-1.3360896
0.3833735
-0.29158783
1.464731
1.1112691
0.39631978
-0.035869922
-1.11773
-2.0914443
-0.46909714
-1.6635511
1.052257
-2.6967258
-0.54555756
1.0383612
-0.13149095
0.061502412
-0.6689049
-0.30153808
-1.0122586
1.7374532
-0.23497641
-0.50595653
-0.21355325
1.8068078
-0.6584735
-0.9532046
-0.44725928
1.5065756
3.322124
-0.63859296
0.23120433
-1.7383504
-1.4568905
-0.312339
0.5375143
0.4599457
-1.1942942
0.42251268
-1.207291
-2.3954449
-0.2278068
-1.2070012
1.4869242
1.2114829
-0.30074906
-0.71223086
1.3220862
1.8224056
-1.7652338
0.67002153
1.1567459
2.1089554
-0.86059505
-0.67420995
0.07944479
0.13686506
0.04318984
-0.011989516
0.11986897
0.9522404
0.21712288
-0.67797625
-1.1144004
-1.9006696
-0.66267645
-0.03937289
1.1697209
-2.060579
-0.18472959
1.5400288
0.5852452
-2.7859473
0.13780852
0.04917662
0.35456374
0.36630955
-0.23548935
0.22276439
0.18731764
-1.3248606
-0.18339954
-0.6432013
-2.2378304
0.7622918
-0.09668783
-0.66709936
1.8750573
1.4568318
-1.3241045
0.03010054
-2.5037239
-1.1777657
0.059582643
