-0.19820419
0.27250603
-0.4304832
-0.33613
0.117748395
-0.38800135
-0.2177329
-0.22344142
0.24892354
0.2991499
-0.36811247
0.25155964
-0.25205603
-0.16497883
-0.00670595
-0.1838609
0.26720926
0.46543035
-0.5104545
0.18546185
0.18014005
0.012681531
-0.31609496
0.25651726
0.4699658
-0.33255896
0.20525393
0.33188215
0.2676194
-0.14054301
0.033614717
-0.40688184
-0.3154123
0.42048284
-0.2747114
0.08083134
-0.32626343
0.4395448
0.14414406
-0.10781939
0.38097534
0.38830665
-0.4803122
-0.25062004
0.45104542
0.34939012
-0.244064
-0.0026007288
0.45792642
0.43639287
-0.024110401
0.12684745
-0.40245542
-0.30197212
-0.14385971
-0.06804295
0.29265484
0.3026848
-0.15840983
-0.16597465
0.09771168
-0.047447316
-0.32990837
-0.19176924
0.14534071
0.028099727
0.46872202
0.2071611
0.1692628
0.15729004
-0.118918926
0.39066777
0.06337531
-0.3481951
-0.3475426
-0.0943843
-0.43201295
-0.3684974
-0.2620541
0.21833073
0.09722887
-0.074005
0.30163148
0.43640003
-0.25813794
0.4260123
-0.39617577
-0.14885801
0.30099985
-0.31342927
-0.17940776
-0.36253226
0.55636126
-0.2829523
0.4774358
-0.26937002
-0.23039618
0.6446686
0.62010854
-0.23590106
0.29487047
0.47801957
0.32431385
0.32503808
0.46848404
-0.16140139
0.1866991
-0.13943776
0.42612714
-0.04197056
-0.22611013
-0.38905647
-0.022971904
-0.12717372
-0.44343844
0.34005448
-0.22002691
-0.1998677
0.330898
0.19799967
-0.32461593
-0.17847554
-0.14967364
0.20021856
0.10703704
0.077658765
0.050529897
0.6854995
0.4498608
0.15480898
-0.053528458
-0.30650073
0.4061584
0.38892576
-0.055229858
-0.23658335
0.23172943
-0.08987534
-0.25245845
0.4478995
-0.005925037
-0.20473331
0.06722383
-0.16734779
-0.20474055
0.20769955
0.11844891
0.07298823
0.4590549
0.61220974
0.21038152
0.27103665
0.6508414
0.36376894
0.03326919
0.082463264
-0.14537334
-0.118353285
0.029954854
0.21019286
0.07316002
-0.49705732
0.25172815
-0.19098286
-0.32464638
-0.43254212
-0.49353
-0.4683152
0.01168987
0.4064373
-0.46737975
-0.38440156
-0.2007124
-0.45943412
-1.6616106E-4
-0.3600913
0.38020808
0.2488398
0.28746125
0.008438954
0.4951269
0.4720778
-0.09704705
0.39148968
-0.18366253
0.43476748
-0.25872278
-0.057113416
0.103140764
0.04677958
-0.34698555
-0.53465474
-0.14594145
-0.41971886
-0.39744243
-0.38399562
0.032296084
-0.22994313
0.42847672
0.017652597
-0.3356079
0.28452474
0.03539615
0.4653906
0.24252056
-0.12094812
0.2938793
0.26775503
-0.15058601
0.040717684
0.554194
0.061612032
0.073335394
-0.1078731
-0.04503115
0.2444289
-0.4695161
0.015786044
-0.024090154
-0.06155497
-0.38752002
-0.45042458
-0.013936661
0.4747969
-0.38396767
0.27145532
0.20445162
0.007823182
-0.39924836
0.22903173
-0.18541138
0.06952894
0.16246414
-0.3285716
0.21673046
-0.10518558
-0.13534653
0.6046471
-0.16390347
-0.028195571
2.1627611E-4
-0.17929366
0.06267377
0.013304605
-0.5891757
-0.48177177
-0.2003315
-0.4733995
-0.18109542
-0.5033316
0.17044461
0.19325405
0.2969254
-0.49677607
-0.26254123
-0.076215304
0.2610959
0.45978445
0.20776966
0.396048
-0.23983023
0.3766584
0.21511994
-0.17371908
0.2130111
0.13506758
0.49636292
0.060149405
0.34757492
-0.4207894
0.1712326
-0.51166326
-0.29596302
-0.18259811
0.09236085
-0.52166957
0.18829225
-0.6427079
-0.51467985
0.06292926
-0.2723855
-0.18613753
-0.08069653
0.31575105
-0.055307694
-0.20298196
-0.47252312
-0.118064485
-0.14828028
0.08429555
-0.3311743
-0.43521214
-0.53939044
-0.38886487
-0.3196331
-0.18656063
-0.41528553
-0.07641279
-0.27819794
0.088182494
-0.28911754
0.16069739
-0.0246976
-0.6246807
-0.45595828
-0.23468079
0.26149616
-0.32196507
-0.23495245
0.4808686
-0.1179153
-0.006590275
-0.26488805
0.03807935
-0.592285
-0.44279101
0.018173423
-0.6411987
-0.830143
-0.08974811
-0.6680856
-1.0344725
-0.52697426
-0.33354542
-0.6471049
0.14794186
-0.4493906
-0.3461781
-0.25524265
0.12989081
0.16685393
0.07460349
0.104418755
-0.37543827
-0.05130972
0.28959367
0.30422112
0.43525305
0.21802044
-0.371907
0.109448165
0.12357101
-0.1594765
-0.13373078
-0.53964025
-0.018386532
-0.24448408
-0.89192927
-0.5510649
-0.62186205
-0.7602528
-0.88532895
-0.16388582
-0.40367165
-0.17984858
0.26553884
0.08813273
0.40370673
-0.18974605
-0.15605624
0.3490786
-0.08809718
0.13779938
0.31258228
-0.26944607
-0.3821607
0.36423573
0.15976271
-0.26826712
0.10980658
0.10414179
-0.07683333
-0.6049333
-0.7494359
-0.0927228
-0.062204115
-0.24960224
-0.6322638
-0.8752792
-0.5434532
-0.43068537
-0.1940603
-0.69398516
0.030957434
-0.5069765
0.32269362
-0.02381404
-0.08341839
-0.07227067
-0.22431517
-0.19421366
-0.16563022
0.39363357
0.42451206
0.1467978
0.15424009
0.2582607
-0.5976173
-0.0016989423
-0.28267205
-0.004903316
0.23041032
0.562128
-0.38783282
-0.29398185
-0.044043895
-0.40418214
-0.5932914
-0.14443088
-0.37155384
-0.5869759
0.064681344
-0.17703664
0.20071629
-0.2587437
0.5898043
-0.14568003
-0.2635618
0.444885
0.24230489
-0.49374303
0.3234022
0.21653736
-0.2370331
-0.016656218
-0.37852666
-0.024106981
0.16005364
0.12451655
0.031095784
0.6672826
0.53860295
-0.4402577
-0.061738756
-0.29505774
-0.14359513
-0.22001474
-0.26494944
0.3729732
0.18648548
0.21955119
-0.34383306
0.401486
0.17002788
-0.2591065
-0.28386518
0.45621648
0.4655433
0.34207502
-0.47992805
-0.107495606
-0.035124484
0.24034423
0.19364111
-0.10618607
0.04357953
0.2904688
0.27358752
0.059214815
0.05628823
-0.18627706
0.08956278
0.46646538
-0.2026453
0.21585976
-0.20718493
-0.36384773
-0.5291665
0.38646668
0.23827255
0.24414039
0.114303395
0.68241405
-0.19539754
-0.44828454
-0.06298729
-0.455996
-0.38999233
-0.4455875
0.11352588
0.12846194
0.33320358
0.1947443
-0.056349564
0.6789574
0.8254743
0.52508897
0.50997883
0.030248107
0.33057582
-0.003565252
0.08077923
-0.16899051
-0.23613076
0.1848712
0.005504789
-0.09957594
0.3829666
-0.19383065
0.07048769
0.02083923
0.4991969
0.043128215
0.44514605
-0.23750171
0.40391454
0.39948413
-0.13599326
-0.4109239
-0.3172513
0.001787694
0.16895632
-0.22135648
0.8617958
0.84675556
0.40562895
0.5718235
0.18998355
-0.21245527
-0.10905312
0.37116838
0.221178
0.46330613
-0.1601292
0.12741776
0.13052751
0.115037546
-0.073758096
0.67849004
-0.20679346
-0.49923185
-0.19084659
-0.2811003
-0.40977868
0.29306105
-0.43482915
0.34463987
-0.12845483
0.080962494
0.11922889
0.57819784
0.32205924
1.0436374
0.8231586
0.8269943
0.52022475
0.5289168
0.02475788
0.3940769
0.48145786
0.08975892
0.3502917
0.64353013
-0.18996824
0.3979844
0.10614621
0.31794712
0.27926055
-0.24308714
-0.054941125
0.133805
-0.39884326
-0.46981272
-0.37018642
0.2582892
-0.18299
0.23518586
0.42314625
0.3153014
0.30578306
0.07493408
0.2649092
0.6373506
0.45987308
-0.06822669
0.11030687
0.09508097
0.35786438
-0.08205225
0.3707059
-0.07309407
0.60089314
0.2657224
-0.16354465
-0.1426613
-0.008512115
-0.0653903
0.20500284
-0.22630343
-0.04268097
0.2983447
-0.02333795
0.20951433
-0.15208131
-0.1913048
0.21427265
0.33585536
0.31997496
0.6266531
0.05824866
0.1528467
-0.20260386
0.11410615
0.19240303
0.29137415
0.14435346
-0.082171075
0.4050155
0.009350235
0.5783895
0.14730683
0.631151
-0.15617803
0.010026002
0.30385616
-0.33261082
0.15199503
-0.5031798
0.20066246
0.2691271
0.3218246
0.4085361
-0.0794601
0.12634392
0.5108351
-0.44602454
0.31775188
-0.34942207
-0.0031644304
0.010780628
-0.31977123
-0.3396635
-0.3847426
-0.31287313
-0.15248103
0.45822057
0.4814533
0.04330434
0.034960836
-0.14077076
0.3114307
-0.454551
-0.042670056
0.09580307
0.16995183
0.276162
-0.45454827
-0.08790243
-0.21179967
-0.41823584
0.41974118
0.21652529
-0.37250698
-0.53427833
0.21680807
-0.024806252
0.16794504
-0.22636053
-0.027317977
-0.5051197
-0.35980734
-0.12592125
-0.17665456
0.26751873
0.26074582
-0.25097018
0.121353894
0.43480882
0.43886533
-0.09359634
-0.36710134
0.29385546
0.20488033
0.4360825
0.4196101
-0.47918728
-0.4944699
0.14035726
-0.35484815
0.17731419
0.050048776
0.1274713
-0.6932248
-0.090493605
-0.4788747
-0.61149216
-0.4220354
-0.044875175
-0.27676216
-0.004027189
0.28927052
-0.23996457
0.21666852
-0.19354047
-0.11483858
0.41383442
0.490949
0.3078467
0.19208926
0.20889482
-0.15957817
0.20114747
-0.41702417
-0.39894608
-0.36214247
-0.19141611
0.35785955
0.08650543
-0.07846106
-0.19158174
0.21439672
-0.2543402
0.21056125
0.07378352
-0.02275098
-0.4708177
-0.084626906
-0.091232546
0.03145182
-0.29831585
0.41512188
0.20970866
0.42754534
-0.14720169
0.03202852
-0.18723565
0.07489167
-0.4910619
-0.41014484
0.120102674
0.07294898
0.4778043
0.45249102
-0.15718247
-0.13482614
-0.15401217
0.13293464
-0.48782742
0.45696023
-0.52979994
0.38208473
0.20328754
-0.06556172
-0.24135125
0.089560695
-0.14237101
0.1118578
0.17533047
-0.016552193
0.43184325
0.29492512
0.3849614
0.4840176
-0.15006101
-0.15190971
0.44397053
-0.40849122
-0.08207715
0.1019652
0.33264503
0.11783619
0.40310553
-0.261413
0.1495054
-0.48577055
-0.08422951
-0.22025383
-0.07564929
-0.14194125
0.41807917
-0.34730628
-0.37882152
0.22261834
-0.030696386
0.3505326
0.2526025
0.3095443
0.27642742
-0.38696477
-0.1118211
-0.40636417
-0.37238476
0.10335664
-0.39144233
0.36829683
-0.21433616
0.12924828
-0.45569417
-0.045408823
0.33185658
-0.10538953
0.24510764
0.38544676
0.43893775
-0.244186
0.14058378
-0.24694169
0.4576933
0.49178448
-0.41244963
0.34724727
-0.4701219
-0.15270805
-0.26532242
0.37091765
0.18883291
0.021667618
-0.42691824
0.0010132748
0.24533643
0.023806248
-0.23304558
0.16894415
0.4622949
0.18629172
0.45658556
-0.15776148
-0.21805853
-0.19579403
0.3756593
-0.22274497
0.15822877
-0.18245009
0.3049918
-0.31731576
0.37150514
-0.30258158
0.09885318
0.48608902
-0.4531447
0.1939621
0.25729895
-0.07907724
0.4925098
0.43522236
0.3015178
-0.01992125
0.38425294
-0.0903767
0.006350939
-0.14379624
-0.2379142
0.24762584
-0.11294206
-0.114469655
0.2963802
0.35288718
0.1999364
-0.3491406
0.27262524
0.3521024
0.12022978
-0.1424973
0.3194923
0.058105253
-0.3025349
-0.21072747
0.3878633
0.069786854
-0.37570655
0.1865444
-0.2522173
0.4943843
-0.11025026
0.127723
0.20572633
0.20472232
-0.13834396
0.11560542
-0.38919333
0.014164716
0.4715701
-0.14190261
0.2398206
-0.39116442
-0.34173688
0.38215318
0.49374062
0.09161917
0.44467875
0.051512573
0.073377244
0.12528045
-0.37287232
-0.3076061
-0.47766915
0.06474337
0.22040193
-0.43115848
-0.022604987
0.29789805
-0.45912364
0.1029371
-0.35107008
-0.067993894
0.04291957
0.4207528
-0.33176026
0.40404084
-0.14178364
0.45186254
-0.42501166
-0.04887923
0.12104867
-0.014092041
-0.11662492
-0.049793128
0.21129191
-0.4956807
0.08597701
0.20084427
0.29150295
-0.3323276
0.3867089
-0.39825332
0.47037625
0.38819754
-0.41300997
0.35015103
0.12457549
-0.10599271
0.50744164
0.024440449
0.48885587
0.2140483
-0.26134577
-0.16568007
0.2758512
0.15858626
0.14082646
0.12701303
-0.19141546
0.28838727
0.05890911
-0.14675476
0.28419992
0.2714896
0.41397554
0.08542349
0.13462938
0.39444965
-0.20532146
-0.17202568
-0.058039933
-0.32582673
0.14606193
-0.08090523
0.24097592
-0.20375636
-0.025307842
-0.4808347
0.17230819
-0.19258377
0.06842732
-0.31210294
-0.20917453
0.43605486
-0.48169
0.40005156
-0.23831809
-0.18817031
-0.48661485
-0.08351236
-0.2949771
-0.16982532
-0.36069483
-0.4315533
-0.29338154
0.14695697
0.114433244
-0.39090538
-0.41324088
-0.08790164
0.27552012
-0.40804935
0.31522137
0.041017335
0.4706489
-0.41652843
0.05891178
-0.13608298
-0.41230682
0.48469222
-0.08274285
-0.04993534
-0.44407192
0.33081055
-0.45780766
0.059411556
-0.14612964
0.037153896
0.1929443
-0.4972359
0.037170775
-0.2753099
-0.22410837
-0.22877751
-0.33757865
0.13263609
0.030024996
-0.07491947
-0.16686557
-0.4863779
0.20978917
0.029223284
-0.39421922
0.15037116
0.1570312
0.165693
0.34979558
0.38286006
0.32510677
0.30587456
-0.1543187
0.11373078
0.35701144
0.24197002
0.0032778273
-0.3679678
-0.053147156
0.48082995
-0.34009132
0.051493682
-0.019283175
-0.22606854
0.2050697
-0.049274173
0.19038159
-0.20469905
0.12538639
0.0627405
0.22908373
-0.41126123
-0.33079058
-0.27416953
-0.1317996
-0.31270948
-0.167002
-0.30275175
0.17830041
-0.24201319
-0.12457685
-0.1529728
-0.13146971
0.50971705
-0.04933368
-0.1378885
-0.37115768
-0.2683992
0.14499937
0.28326336
-0.003023233
0.15611203
-0.33907923
0.21778275
0.2782237
0.15229669
-0.47762567
-0.3844333
0.33961764
-0.082085624
-0.48915103
-0.26754445
-0.15340444
-0.22423705
0.41236472
0.24033396
0.23936337
0.018198932
0.32735917
0.2746056
-0.28237182
-0.06044447
0.2765092
0.43657902
3.1521302E-4
0.4932783
0.38014805
-0.12771948
0.15783612
-0.1524033
0.23856008
0.33425096
-0.025205757
0.48943695
0.3307574
0.033585474
0.10293555
0.08140043
-0.42787346
0.437962
0.28046146
0.48936513
0.1565662
0.20132886
0.039772272
0.2575006
-0.19124965
0.082279496
-0.123580724
0.50857675
-0.36846945
0.5106623
0.19557618
0.4254823
0.50988287
0.5533339
0.34017262
-0.40158173
-0.16351047
0.19241856
-0.15307504
-0.38966224
0.034190066
0.24130966
0.090966225
-0.085044615
-0.20189662
0.27218834
-0.053963326
-0.13278212
0.16628586
0.33512616
0.33197716
-0.13456641
0.346654
-0.22789426
0.050301194
0.23992504
0.3936661
-0.20527226
0.12725404
-0.5032821
0.18603529
-0.34251073
-0.3522896
-0.40999004
0.23342884
0.43808842
0.40805635
-0.11778028
0.18905875
0.49621883
-0.05014087
-0.2593188
-0.47212034
-0.028277736
-0.47165203
0.09016914
-0.024899654
0.19237342
-0.117603816
-0.4347163
0.36794496
-0.34375745
-0.049633935
-0.028687948
0.22026545
0.34776384
-0.30605713
0.2831939
0.41544414
0.39949253
0.37519628
-0.48134878
0.17685352
-0.09499751
0.4915122
-0.15446489
-0.4188805
0.4648672
-0.28675476
0.08023773
-0.1854898
-0.35251176
-0.4247492
0.1504131
0.043960378
0.0051546297
-0.06637651
-0.06246026
-0.48148438
-0.4593447
-0.062550195
-0.15564242
-0.51940334
0.39965522
-0.113295615
-0.35920686
-0.18200451
0.115275666
0.042468727
-0.3855145
0.20803541
0.037536442
-0.17975082
-0.32879242
0.17369616
0.34599087
0.041286997
-0.1982796
0.41112113
0.49003977
0.035727642
-0.22632657
0.09531122
-0.26900345
-0.2065595
0.21250868
0.24581704
0.035697147
0.3537851
-0.21945088
-0.11616259
-0.4008291
-0.076385334
-0.34253937
0.047771193
0.4266503
-0.031794187
-0.3326918
0.0116692
-0.3638835
0.48460478
-0.26758868
0.048046913
-0.15014958
-0.18336116
0.21714494
-0.45633057
0.38655078
-0.3580764
-0.06784715
-0.014146354
-0.29549882
-0.08923084
-0.31873587
0.21018901
0.34249803
-0.053239923
0.12262379
0.1951093
-0.090877555
-0.3889422
0.29803216
0.20562229
-0.1779647
0.14742008
0.14108989
-0.3679176
0.40746436
-0.023106463
0.04162171
-0.35315794
-0.20051616
-0.096131265
-0.45016053
-0.2876409
0.28712445
0.41309837
0.3500999
-0.028184555
0.040075943
0.2807918
-0.15380976
-0.38331243
-0.43811882
0.3791518
0.26991525
0.22179918
0.3432036
-0.41425455
0.04872324
0.029525012
-0.36871943
0.23916093
0.4426187
0.032803062
-0.17700888
0.33435753
0.44481313
0.090817794
-0.4392603
0.2670337
0.33047366
0.13808647
-0.33577678
0.3105246
-0.06372601
-0.3618134
-0.16743827
0.35687023
-0.23517318
0.15037097
-0.297838
-0.013130009
0.2552469
-0.26804712
0.21657737
0.36472058
0.02575726
-0.42940685
0.37724766
-0.2934743
0.27774176
-0.15616648
0.35657206
0.05124404
-0.30638638
-0.27189502
-0.30237255
-0.48870128
0.23273312
0.031969737
-0.0938941
-0.47145876
0.0777939
0.318976
-0.061888732
-0.41672477
-0.16735914
-0.21471673
-0.32681453
0.03796187
-0.18876499
-0.22697842
0.18089198
-0.5302302
0.26209965
0.2797085
-0.1743048
0.45518968
-0.04064834
0.1031455
-0.27759576
-0.094772525
-0.31807843
-0.024869554
0.38143122
-0.46335226
-0.33002648
-0.342551
-0.07468737
0.08903921
0.2007735
-0.31058583
-0.16730797
0.42046455
0.4837529
0.46834502
0.3607261
-0.2446265
-0.51756346
-0.46875954
0.34034598
-0.50444686
-0.08002307
-0.1275495
-0.111134276
-0.34409273
0.35747358
-0.17222159
0.06284783
-0.51799136
0.29524255
0.335455
0.13687909
0.29846236
-0.44548053
0.16180158
-0.302134
0.30758193
-0.059485983
0.23982908
-0.2272467
0.14865483
0.056095075
-0.111872114
-0.025047623
0.08519702
-0.295704
0.10878082
0.06454242
-0.5087929
0.08520346
-0.012989359
-0.269729
-0.4342588
-0.020991422
-0.04401627
-0.090799
-0.43828318
0.18645127
-0.18795377
-0.19577797
-0.07390023
0.35719818
0.37953588
-0.16631493
0.31584772
-0.3280953
-0.3988519
0.15039547
-0.13725235
0.138601
-0.22657695
-0.16292328
0.35834655
0.012968911
-0.19184396
0.35014537
0.16019905
-0.2432437
0.318307
0.31868082
-0.22813909
0.41662708
0.07816203
-0.20146298
0.118356384
0.21119289
0.24855846
-0.44231722
0.13076152
-0.4198493
0.2642101
-0.3591982
0.16256604
0.0264378
0.16901371
-0.42533118
-0.0069900174
-0.43444687
-0.30155075
-0.2970946
0.013017947
-0.26464596
0.18848437
-0.09875894
0.4580889
-0.053083647
0.2917143
-0.1482014
-0.100703806
0.29602066
-0.28016493
-0.039012317
-0.45895657
-0.049699254
-0.16653277
-0.13339011
0.3582915
0.3970779
0.2622185
0.47678205
0.07104767
0.36695
0.17089912
-0.18081033
0.22472265
0.13810669
0.083790615
-0.42725033
-0.13774742
-0.4314445
-0.16062665
0.0133441845
-0.18580927
0.36931524
0.33034757
0.13411713
-0.17081386
0.3045718
-0.22500394
0.34527552
0.33774862
0.07284255
-0.17629519
0.33313128
0.44492453
0.21464399
-0.17075832
0.4756299
0.20535877
0.004826415
0.2346696
0.35898456
0.0014299357
-0.085252024
-0.0076275105
-0.17983867
0.1750549
-0.21739708
-0.28013492
-0.19128712
0.3237128
0.27501124
0.51630116
0.23942198
0.5004732
-0.031976413
-0.1426838
-0.060219254
0.16127178
-0.0883184
-0.39905325
0.33702597
0.45754522
0.4247575
0.39319316
0.0076864716
-0.2093344
0.226401
-0.34873518
-0.23331952
-0.15133378
-0.12384255
-0.4284224
0.24198632
0.3268029
-0.33005178
0.41832134
0.39168355
-0.08329535
-0.06545112
-0.083701864
0.47532642
0.056922365
0.007387243
0.3839773
-0.123810425
-0.05608846
-0.10555113
-0.48721826
0.33576828
0.091898896
-0.4242026
0.3877041
0.46372983
-0.35493615
-0.053475678
-0.12332439
-0.24652848
0.47258785
0.3502331
0.2894338
-0.472523
0.10727791
0.0026091337
-0.42991665
0.22710158
0.4781575
-0.01764787
0.33776745
-0.29537705
0.13069716
0.26558593
-0.00873645
-0.21924445
0.07192931
0.13964485
0.41537303
-0.382611
0.39197406
-0.36471394
-0.4801531
0.15936199
0.11092801
0.06531436
0.4280965
0.16511768
0.098184325
-0.39462999
-0.19021964
0.3960521
-0.12294706
0.34573695
-0.12837833
-0.32741264
0.20065933
-0.3578214
0.4500888
0.5085674
0.50223124
0.30748114
0.2299475
0.05365702
-0.17287561
-0.43053415
-0.40188777
0.21873474
-0.27529788
-0.038589608
0.2339384
0.36680666
0.0616881
0.022908598
-0.150323
0.42711684
0.4205658
0.22195631
-0.11966765
0.09037855
0.024021178
-0.17826039
0.3356135
-0.17908664
-0.070888996
0.51098317
0.47430035
-0.21752879
-0.42546773
0.49226287
0.4371902
0.41520905
-0.36920348
0.3822732
0.48848283
0.3258227
0.501304
-0.29326382
0.041064072
0.35340384
-0.2415895
0.013652166
0.24080765
0.16574144
0.2524813
-0.3983519
0.45187438
0.498211
-0.3680501
-0.3353632
-0.35377872
0.20221671
0.53353584
0.21204315
0.35950476
-0.39707786
-0.23941068
0.45198017
-0.45095322
0.25040662
0.34092864
0.48750183
0.47682917
0.10014137
0.5039013
0.031537138
0.38902986
0.22526973
0.22687125
-0.40193966
-0.28048453
-0.22618315
0.21949017
0.03175198
0.17812422
0.44093725
-0.10920912
0.53164
0.078878105
-0.12071613
0.11221024
0.35602146
0.09999126
-0.26855952
0.38449502
0.18161803
-0.4464237
0.4919942
0.24292895
-0.27555412
0.23961683
0.32934928
-0.39721507
0.46807942
-0.18581186
0.1053662
0.28222844
-0.10515854
-0.012292681
0.4002156
0.5410726
-0.054012105
0.24891548
-0.32550386
0.08298825
-0.32092518
0.52714676
0.13486695
-0.050975226
0.367707
-0.020070083
-0.09810872
0.20630479
-0.3809215
0.28800926
-0.37875715
0.23001392
0.040436838
-0.101358466
0.41450945
-0.009556478
-0.08987253
0.09834353
-0.4283734
0.20234486
0.28865772
0.021084543
0.36085084
0.18181625
-0.4400766
0.41397494
-0.04060337
-0.24619082
0.39128968
0.027909655
-0.104652844
0.32679328
-0.26291388
0.3831055
0.31819734
0.3680195
0.3425629
0.123337135
-0.07385943
-0.01913589
0.43691695
0.34719104
0.125611
-0.041250344
0.14094974
0.19858044
0.488144
0.48377126
-0.107175775
0.060759697
0.53708714
-0.300086
0.13954969
0.22543044
0.39313626
0.2213477
-0.09352056
0.37672567
0.19025972
0.45007837
-0.110834144
0.060121395
0.2520057
0.35053045
-0.37734792
-0.3834379
0.078235134
0.20087402
-0.18158667
0.4955345
-0.41359732
-0.027676607
-0.19460002
0.05748081
-0.38270098
0.34724858
0.46629944
0.14628959
-0.44413516
-0.42118096
0.4174728
-0.3616021
-0.29092407
-0.41342285
0.11599955
-0.4091898
-0.23606573
0.2013052
-0.2909626
-0.031093637
-0.33077288
0.43356597
0.46954685
0.07210533
0.0757079
0.4424661
-0.079457186
0.07266463
0.4144504
-0.1870589
-0.12058477
-0.34659788
0.3169435
0.30029455
0.45672342
-0.24761571
-0.2199477
0.031823955
0.38822255
0.4378337
-0.22918923
0.15900151
-0.124468796
0.3777353
-0.34492645
-0.26323476
0.04095227
0.11755362
-0.08538955
0.096137784
-0.4031053
-0.30941367
0.3333411
0.4818003
-0.12653661
-0.3734524
-0.14458293
-0.40184855
0.3485613
0.1598317
-0.45117047
0.465218
0.27711198
-0.36922786
0.34330586
0.21030556
-0.0076362016
-0.44227552
-0.025538081
-0.37041673
-0.32375526
0.20572631
0.48791456
0.056004226
0.3354244
-0.39898467
-0.41903898
0.2548943
-0.3928855
-0.4774454
-0.12343716
0.2640356
-0.11850014
-0.39384875
0.10921273
-0.103006855
-0.06700074
-0.19152065
0.3165452
0.49813467
-0.16677904
-0.28196737
-0.36497197
0.38682085
-0.1886263
0.13985357
-0.28891292
-0.42671904
0.009029399
-0.2964145
-0.19052503
0.12176255
-0.3002459
-0.28941643
0.5111196
0.36179486
-0.11157444
0.27375033
-0.25121945
0.1318212
0.46380472
-0.4779967
-0.23454224
-0.42975998
0.2905914
-6.371104E-4
0.5114026
-0.2380868
-0.30694538
-0.052762393
-0.21669531
0.060962554
0.138665
0.16888796
0.4831771
-0.31441215
-0.36246184
-0.16546218
-0.41395855
-0.22573088
-0.46769655
0.17858426
0.10222195
-0.38309434
0.054328665
0.192409
0.2652236
-0.4210648
0.015046278
0.27932736
-0.23818107
-0.042085994
0.19522159
0.36522755
-0.025926815
-0.02857325
0.13578896
-0.0020619368
-0.20580845
0.012451604
0.33960408
-0.21863218
-0.35234684
-0.16732025
0.38209563
-0.24539533
-0.41146934
-0.2766801
-0.0592814
-0.07019332
-0.093399584
-0.10333804
-0.13975447
-0.40548018
-0.20172006
0.021217305
0.12902628
0.15675908
-0.19260661
-0.21508664
-0.28436318
-0.1195228
0.3766679
-0.19583549
-0.37028438
0.4340471
0.08467781
0.13592556
-0.4445875
-0.24274041
0.1298639
0.31125218
-0.086630374
-0.34817445
0.116785206
-0.19086999
-0.060810074
0.11981439
0.46943507
-0.27533504
-0.050403927
0.061516773
0.09769719
-0.029491067
0.4183333
0.4390044
-0.2997104
-0.38414407
0.42600825
-0.2915046
0.2987815
-0.03783304
0.072564475
0.31263226
0.19408514
0.42469603
0.3550355
0.4026798
-0.23350872
-0.23697196
0.41499186
-0.41080567
0.061850708
0.30459425
0.4233184
0.06518739
0.24911498
-0.4743263
-0.36219543
0.1711142
0.21801284
-0.34636962
0.14543712
0.5093204
0.43338352
-0.13484985
0.14164197
0.30197704
-0.39695993
-0.116928354
0.37667063
0.19936202
0.47603148
-0.29517478
-0.029384159
-0.10940996
0.24319287
-0.012765513
-0.19660117
0.32189515
-0.07301765
0.32646966
-0.3199223
-0.4290923
0.33220857
0.28164285
0.3573579
-0.43651852
0.32355988
0.46575117
0.30668005
0.23657915
0.37390918
0.28029546
-0.36566132
0.31277812
-0.07685347
-0.2707044
-0.29673097
-0.40218228
-0.44219315
-0.31760964
0.26096705
0.2540647
-0.09117118
0.38993987
0.40681666
0.10806445
-0.059789456
0.41032422
-0.039833777
0.3001788
0.3830771
0.23740527
0.13058788
0.28645763
-0.1645338
-0.12873316
0.2381629
-0.27955925
0.24424966
0.4448157
0.1475485
0.13352361
-0.2520833
0.43311447
-0.16348976
0.08985047
0.30833283
0.531074
0.4928357
0.48428562
-0.19464624
-0.13337375
-0.24967547
-0.09880648
-0.24617703
0.037231866
0.4515839
0.22760332
0.28407276
-0.27055624
0.039927453
-0.027087053
0.25296402
-0.14784728
0.042062946
-0.17623425
-0.13470478
0.060553893
0.4130233
0.31195632
0.22779068
0.4437716
-0.15313604
-0.0076682284
-0.021023683
-0.26644084
0.51216745
-0.18246625
-0.30619478
0.20537509
0.47584426
0.014769085
0.26338562
-0.326894
0.06969072
0.0019517023
-0.47948188
0.018976
0.027841805
-0.25752723
0.20631169
-0.120820776
-0.33172166
-0.26117018
0.21061546
0.14139353
0.33557925
-0.06857453
0.43958873
0.41008446
0.31852588
0.06448694
0.072308816
-0.16772912
-0.25527605
0.009371697
-0.037813637
0.36797407
-0.056184128
0.024416646
-0.2018727
0.4854254
-0.49487534
0.46179605
-0.007206733
-0.19560431
0.007415361
-0.15099844
0.29475078
0.4820914
0.4841495
-0.39809036
0.35418758
-0.37457898
0.10082305
-0.2607944
0.42525604
0.33702508
0.010390515
-0.2551557
0.3558753
-0.2136691
-0.15686736
0.35721898
0.24161245
-0.4645803
0.2169251
-0.41428003
-0.17979339
0.31220725
0.36492363
0.0169484
0.058977958
0.48218447
-0.34279674
0.008415194
0.19484322
0.4121586
-0.28675202
0.24035802
0.19198465
-0.38064048
-0.11673913
0.13999173
-0.13212118
-0.22037509
-0.11651396
-0.43702564
0.2650212
0.037472047
-0.3179129
0.43406862
-0.050845187
-0.0250294
-0.05197552
0.36060438
-0.39060926
-0.21712004
0.38477072
-0.42906892
-0.28078192
0.48021826
-0.31650126
-0.3598784
0.424328
0.06016843
0.059284166
-0.38435462
0.26591903
-0.22719169
0.19127546
0.41212508
-0.21540545
0.38044068
-0.03920475
-0.24577868
-0.26290646
-0.26733682
-0.33021882
-0.084950715
-0.10098581
0.39418203
0.46791512
0.30531767
-0.44078112
-0.08134933
-0.3605827
0.25496072
-0.025359597
-0.332065
-0.06817514
-0.1546477
0.27750584
0.34954697
0.25700024
-0.07135193
0.04674816
0.067454584
-0.17348129
0.112725474
0.101837106
0.51915187
0.48491606
-0.29122192
0.28874817
0.53006005
0.14395598
-0.4572672
0.15983377
0.13008757
0.26067266
-0.3957385
0.33083338
-0.26443258
0.16848241
5.2684074E-4
-0.24550945
-0.32061043
-0.1437337
-0.34568587
0.1106956
0.2745663
0.24521184
0.13440695
0.14559215
-0.062187
0.34586617
0.42208785
0.431912
0.022915304
0.31030884
-0.29251644
-0.11975024
0.12197952
-0.09182518
0.14961213
-0.44498348
-0.2758381
-0.20479083
0.24390845
0.23621234
-0.11904596
-0.034354355
-0.2366912
0.4922455
0.060185865
0.33101177
-0.12227896
0.1438481
0.14812304
0.04554589
-0.37385818
0.2435079
0.1602697
0.009683857
0.18569754
-0.2064541
-0.21435118
0.40396062
0.43633726
-0.18581304
0.02397515
-0.3957156
-0.430313
-0.17553315
0.46724734
0.534238
0.37451932
0.51914793
0.01157781
-0.20367098
0.4406009
-0.13919455
0.2867846
0.06883895
0.27173525
-0.2569847
0.23578505
0.16336821
0.0588091
-0.4470092
-0.08844161
-0.1905414
-0.35872164
0.40947875
-0.23618813
-0.26324514
0.031457588
-0.40720445
0.36839968
-0.16637936
-0.30277467
-0.30348572
-0.17895435
0.22695775
-0.29140887
0.3304413
-0.22183114
-0.07480331
-0.24588387
-0.21735445
0.43816838
0.26490954
-0.015445966
-0.09121208
-0.40883058
-0.2198614
-0.3783439
-0.34056875
0.23438403
0.26043066
0.2624323
0.0760841
0.15064159
-0.27715617
-0.117260516
0.29596952
0.27602565
-0.28340426
-0.42639118
0.08516213
-0.35359716
-0.09864734
0.17982404
-0.31021038
0.20481893
0.111343704
0.12640746
0.34265974
-0.22339873
0.18467374
-0.109837115
-0.4100305
0.07451576
-0.3192752
-0.2326009
-0.2848385
-0.31703863
0.23528379
-0.182293
-0.07275935
-0.4109433
-0.36594084
0.046189405
-0.42139235
-0.09863473
0.40327787
-0.29416427
0.16072115
-0.3925446
0.09851899
0.33638287
-0.5259797
-0.15353683
-0.13142532
0.1525366
-0.4700417
-0.44014823
-0.24093059
0.13444373
-0.10342214
0.014480968
0.120518215
0.17426154
-0.13600974
0.08373561
0.05140326
-0.4490277
-0.36105353
-0.019185387
-0.24163365
-0.44230664
-0.506584
0.08184364
0.37288272
-0.38470688
-0.28407505
-0.12391004
0.20226558
-0.2541679
0.41795313
0.010647338
-0.3875635
-0.14936632
-0.26620218
-0.13929953
-0.25859386
-0.16023043
-0.28270566
0.042601936
0.020107813
0.2972181
0.28909776
-0.166654
0.059754167
0.02056317
-0.08516378
0.4716323
-0.23238012
-0.5106549
0.30686915
-0.041658178
-0.2666345
0.018877536
0.33139125
0.04848483
-0.20663626
0.13961917
-0.5203757
-0.20390609
0.38586992
-0.4868901
-0.28915867
0.19221517
-0.21512504
-0.46518043
0.21611401
0.13633679
-0.48777488
-0.41785815
-0.34941858
0.25397098
0.366259
-0.13059449
-0.2571152
-0.18169615
0.1541929
-0.41462487
-0.36366242
0.32161176
-0.061798424
0.1267294
0.34057224
0.16141346
-0.026616676
0.1409748
-0.29979602
0.17691563
-0.4051658
0.0727072
-0.25564083
-0.26828697
0.33005708
0.004929701
-0.0033601997
0.42982167
0.1417991
-0.44416738
0.24061258
-0.43347353
0.3987756
-0.01738661
-0.23888007
-0.08269713
0.1724259
0.24233982
0.078043856
0.25749746
-0.30872974
-0.50796616
-0.29182628
0.036835834
-0.26535594
0.40788734
0.09946004
0.24200948
0.10854838
-0.06454964
0.43723235
0.34622246
-0.06845446
0.39234996
-0.274518
0.30604583
-0.4655459
0.113570765
0.43297514
-0.48132113
0.2992149
-0.39615265
-0.4006009
0.28081378
-0.004655329
-0.025639772
-0.46389484
0.4303694
-0.13561192
0.25496057
0.25244817
-0.52862096
0.28070933
0.44098735
-0.3084408
0.4834689
-0.3494566
-0.38985273
0.31875643
-0.122824706
-0.16316178
-0.39346018
0.0031073124
0.15434273
-0.45128527
-0.14839864
-0.5203431
0.14096715
0.07248622
-0.4544945
-0.20854326
0.20007637
0.42564404
-0.015421844
0.3559009
-0.2857002
-0.323261
0.14164886
-0.16436768
-0.26744542
0.41314504
-0.13232557
0.27440402
-0.46457508
0.41898268
0.16082877
0.41270533
0.3584097
-0.12698904
0.30005175
-0.21629494
-0.28326544
0.2550756
-0.110065706
-0.055511724
0.0835128
-0.24305142
0.29306322
0.43440527
-0.105586685
0.20140293
-0.2333543
-0.16526757
-0.41824618
-0.17434789
-0.106365204
-0.1271528
-0.040764604
0.34394798
0.40084514
-0.43783218
0.5104169
0.09176119
0.023633223
0.22496974
0.0061098672
0.011943557
0.31613785
0.38314834
-0.23836055
0.19388507
0.105383195
-0.057412524
0.3978254
0.25434682
0.30190995
-0.0739812
-0.17494158
0.031816825
0.10667341
0.03944511
-0.024882069
0.19955428
0.3125845
0.14951102
0.029546345
-0.059223063
0.10577268
0.21798943
0.43107548
0.37171754
-0.22943455
0.31894866
0.36627534
0.2247499
-0.39420402
-0.4854657
0.117004395
-0.35838336
0.39829475
0.26814893
-0.39559042
0.2506608
0.41503516
0.16130017
-0.12191026
0.06175729
-0.4779198
0.19469897
-0.5173962
0.09323277
-0.24370916
-0.42274186
0.009720585
-0.4088381
0.43802795
0.25605392
0.3072248
0.47294948
-0.34997135
-0.4563991
0.5129646
-0.42590955
0.35113767
-0.4955688
-0.44258848
-0.23174329
0.28612024
0.017049642
-0.4285141
-0.10226417
0.16908278
-0.4247216
0.36316302
-0.5046511
0.053591974
0.19497119
0.3682967
-0.31757733
-0.09779039
0.08598228
-0.44356143
0.43090975
0.35852024
-0.054450944
0.42436308
0.46415195
-0.25719613
-0.29922822
-0.35480094
-0.3208969
-0.10863149
-0.07259437
-0.18864785
0.098574586
0.19274004
0.093309455
0.1234146
-0.35907987
-0.1626688
0.4283045
-0.2634747
-0.38807812
0.43427306
0.06917108
-0.47397274
-0.21570544
-0.3653059
0.33218905
-0.25048098
-0.3456826
0.044838417
-0.47649196
-0.051872335
-0.23493479
0.26507652
0.44060358
0.02405005
0.08438769
0.30381703
-0.38622788
0.45371774
0.2575808
0.15246281
-0.2636861
-0.38132045
-0.18425353
0.38379717
-0.35224172
-0.36124036
0.37451726
-0.02033044
0.46397305
-0.36506042
-0.31000143
0.37621006
-0.4242498
-0.49558377
0.35940763
0.12581645
-0.38759556
-0.013161164
-0.33009604
0.35176167
-0.39672887
0.10003601
-0.07799747
0.07473127
-0.061029524
-0.02842525
-0.27613747
0.052283164
-0.2030754
0.4026504
0.23945588
-0.052987322
-0.48855862
0.23587187
0.27175868
0.081108436
0.39633894
-0.28871372
0.121153966
-0.3285131
0.3628024
0.24196173
0.24010135
6.208538E-4
-0.13805994
0.45618385
-0.26578245
0.45664927
0.17579573
-0.19745989
-0.34419835
-0.14302847
0.20711094
0.20245595
-0.14693916
0.22471558
0.026914423
-0.2780092
0.13774988
0.22807081
0.2903133
-0.02947383
-0.05962633
-0.05676314
-0.273586
-0.03908345
-0.04844948
-0.34395325
0.32134444
-0.363702
-0.07709479
-0.5466666
-0.5212211
-0.13896787
-0.19366941
-0.15084903
-0.17906542
0.43656862
-0.14253184
0.052088827
0.45324272
0.29822823
0.15390503
0.14321266
0.32921743
-0.009259768
0.39842448
0.12268298
-0.11389474
-0.33220002
-0.5084332
0.17773153
-0.076967984
0.09864803
-0.44950306
0.03591271
-0.4537726
0.12881202
-0.3221316
0.014893787
-0.47321635
0.357772
0.29524744
0.23307104
0.15143338
-0.3598279
-0.4487844
0.34948015
0.29692686
-0.33018357
-0.022287065
0.10726878
-0.5510205
0.33307382
0.18290578
0.08252579
0.29042998
-0.5047316
0.30929103
0.08964031
-0.18799737
0.4514185
0.24440885
0.41373605
-0.2714492
-0.39595824
-0.28601295
-0.33135256
-0.0036835768
-0.31788495
-0.4222911
0.41526714
-0.19648677
0.35132787
-0.48355442
-0.38333926
-0.4901893
-0.39425462
-0.3420327
0.17952275
0.05696138
0.04327165
0.4391157
0.07156276
-0.4961045
-0.44861534
0.40204328
-0.13196264
0.073910214
-0.0077998256
0.4676565
0.35131058
0.27783173
-0.19449972
-0.035584025
-0.03765976
-0.070299804
0.33110163
-0.23773517
-0.40809304
0.10042749
0.27021387
0.35365474
-0.23728342
0.33056504
0.32918528
0.3300298
0.0120582245
-0.40976113
-0.005431584
-0.12314076
-0.40392938
0.32004303
-0.15043125
0.17171943
-0.45161322
0.31958124
-0.04818511
-0.26605034
0.045516565
0.19100028
0.3314885
-0.105064854
0.37991205
-0.33397588
0.18289816
-0.32814708
-0.11142436
-0.47350785
-0.528475
0.123519
0.24596803
-0.43518394
-0.26259828
0.36507556
0.4230136
-0.04402114
-0.51231116
0.44585747
0.10725099
0.11113759
0.17708483
-0.2855642
0.47007266
-0.44403175
-0.15709262
-0.39319044
-0.46802777
-0.30858785
-0.33291212
-0.50497526
-0.26368415
0.012460998
-0.14806378
0.14705077
0.18233082
0.42369947
0.46664304
-0.33100867
0.0023674788
0.09054453
-0.22596519
-0.38922855
0.21491411
0.35150573
-0.48179936
0.28424394
0.1058514
0.4597849
-0.26165313
-0.51230407
0.013175933
-0.123787746
-0.2189318
0.28302002
0.36129668
-0.13938835
0.3820733
-0.0909056
0.40897062
0.3807986
0.23027696
-0.05082445
-0.07448463
-0.21453883
-0.09792546
-0.24691615
0.4002971
-0.14849705
-0.23399268
-0.20385188
-0.078121156
-0.19537096
0.3813686
-0.5013324
-0.44895083
0.15111542
-0.3565969
0.3667223
-0.30643445
0.14064121
-0.3620816
-0.4461452
0.03754234
-0.25817162
0.4073001
-0.16546184
0.508108
0.48698452
0.13424847
-0.16703427
0.38810202
0.083202034
-0.20189951
0.115911536
0.49159688
-0.09189844
-0.33651268
0.21502525
-0.04425246
-0.29417083
-0.23683167
0.037869483
-0.36155495
-0.31617305
0.1665744
-0.22967754
0.2034224
0.34745243
-0.075891964
0.079856046
0.021152658
-0.33162993
-0.16184461
0.21085876
-0.22319698
-0.11111021
-0.29495093
-0.23987786
0.23057522
-0.30293235
-0.09560511
-0.3555627
0.2489376
0.12310347
0.16777967
-0.09246589
-0.0015455872
-0.37023404
0.46609727
0.25403818
-0.2770037
0.06568087
0.29159436
-0.3378719
-0.2880606
0.2803869
0.4628649
0.06102751
-0.10045648
-0.3034916
-0.055817317
0.42857173
-0.008118689
0.068833716
0.53897697
-0.41066712
0.42081395
0.47510177
-0.15838833
-0.11091036
-0.2734679
0.10135525
0.117248796
-0.2630332
-0.5144286
0.21595949
-0.19127461
-0.43455654
0.067053154
0.24233249
0.362778
-0.17168453
-0.3128968
-0.13388304
-0.27572793
-0.4147514
0.23720138
0.0846741
-0.48353237
0.19274394
0.22247887
0.05567167
7.875647E-4
0.20234127
-0.19519566
0.11454836
-0.40492204
0.11784444
-0.28313082
-0.23468722
0.4435825
0.2585967
0.12793544
0.082147755
0.12557326
-0.08840879
0.23207904
0.052207004
-0.3136477
-0.10404924
-0.335436
-0.45973358
0.27274445
-0.059584145
-0.102909945
-0.010589812
-0.17031111
0.057661165
-0.13529338
0.017128415
-0.00857192
-0.22530608
-0.07255455
-0.48160535
-0.30314478
0.038511485
-0.034988776
0.13885759
-0.3359583
0.22811142
-0.32375035
-0.032270607
0.073429376
0.43145236
0.28281322
0.12030804
-0.33016032
0.08862587
-0.22660974
-0.3174719
0.03750529
0.3696337
0.0057209213
-0.40671948
0.22255133
0.4547515
0.44258562
-0.50569755
-0.20373726
-0.46112388
0.11336347
0.22066192
-0.16733268
0.16077672
-0.42247033
-0.23601288
0.39632285
0.09556508
-0.24614306
-0.45808718
0.34061918
0.043821447
-0.45304683
-0.41470295
-0.4510467
-0.28317124
0.43100923
-0.036219157
0.0975466
-0.43798217
0.34848404
-0.05974714
0.009875042
0.1006463
-0.5183825
-0.31742683
-0.16345365
0.19576494
-0.28893885
0.07301775
-0.5190418
-0.20580627
-0.11705788
0.08520892
0.33375365
-0.34636548
0.3404301
-0.51677084
0.041711546
0.27256328
0.46117908
0.012086987
-0.067796364
-0.04953721
0.5210724
0.26250055
0.48949957
0.5313642
-0.067527056
-0.21013838
0.527328
0.26775256
0.126552
0.18391672
-0.28585982
0.25686574
-0.02092571
-0.4065915
0.17413399
0.38064378
0.0037839825
-0.05580142
0.09043466
0.43379498
0.3938648
-0.38977706
0.48504603
-0.094799295
0.12390685
0.3427425
0.37293077
-0.20137033
-0.15271977
-0.050119847
0.4006043
-0.33898297
-0.04241511
0.2662533
-0.39597648
0.55003667
-0.15207386
0.2816289
-0.02376041
0.017376104
0.09776385
-0.09223748
0.12158652
0.30957097
0.046260595
-0.24480665
0.39610898
-0.09927382
-0.03467588
0.46109024
-0.43307728
0.14079776
-0.15806213
-0.42978358
0.23591772
0.31110203
-0.40292645
-0.3018146
-0.05344569
-0.41685006
0.41898465
-0.27097538
0.1646884
0.44414216
-0.2227622
0.09402218
0.085738406
-0.04966967
-0.40517506
-0.24525821
0.52340597
-0.23755884
0.0036920416
0.40113494
0.016308889
0.33875734
0.10913508
0.4361864
0.51118594
-0.34389335
0.086596265
-0.13821718
0.1447928
0.088478304
0.22326866
-0.19494322
-0.20322627
0.4064698
0.26273283
0.39148474
0.21243545
-0.3510967
-0.22557199
0.0115615195
-0.045662537
-0.22506699
0.27465028
0.5106504
0.43426713
0.08784153
0.042997066
-0.25214
-0.046200268
0.34411535
-0.2540885
-0.12571247
0.3998053
-0.21911432
0.1365053
0.38463068
0.54855454
0.3361277
-0.34871373
0.440305
0.30053884
-0.26249507
0.54782695
-0.08714284
0.3766706
-0.29364842
-0.04052858
-0.018184198
0.034499288
1.8054461E-4
0.37608406
0.49216813
0.096604966
-0.37250453
-0.40617207
0.28484815
0.012346049
-0.10044372
0.30615273
0.24376538
-0.019985663
-0.19245102
0.3712724
0.18743569
0.52350265
-0.1715093
-0.04723416
0.118740864
0.39085674
-0.14715424
0.33201644
0.36788687
0.36526975
0.30057532
-0.28195217
-0.3958004
-0.42888397
0.17914188
-0.010961921
-0.4077198
-0.16839154
0.1401415
0.032006804
0.39497742
-0.44814023
0.028207736
0.38485616
-0.016691707
-0.4460813
0.2795077
-0.3994498
0.0761812
-0.2621344
-0.006807217
0.3207236
-0.1888683
0.12757073
0.0046529
-0.2752067
0.3898541
-0.22672015
-0.057906333
-0.045833025
-0.31924927
0.28576013
0.34023088
-0.47273788
0.17643256
-0.089188196
-0.02266435
-0.43636644
0.12474446
0.07552653
-0.14536773
0.4803365
-0.04752467
-0.09052266
-0.34584236
-0.30097532
0.21862839
0.2791031
-0.004683564
0.45389768
0.54195356
0.40808898
0.29804316
-0.13816677
-0.0074227843
-0.100083016
-0.016178176
-0.30493566
-0.12479859
0.502386
-0.030971196
0.46090922
-0.50069755
-0.28085205
-0.20296092
0.17041373
-0.4803218
-0.19234115
0.30509058
0.22852437
0.3267029
-0.35105348
0.022002548
0.26344997
0.33572713
-0.10558254
-0.07811808
0.029205829
-0.19225726
-0.17341538
-0.43953764
0.13415581
0.36142898
0.21891762
-0.26747566
-0.20645842
0.15645763
0.15213
-0.3938701
0.12598369
0.18469015
0.093122505
0.24925451
0.43940008
-0.29282987
0.30781925
-0.06367425
0.46319655
-0.24153325
0.38955852
-0.42524257
-0.20202294
0.5132002
-0.15571603
-0.14489782
-0.26871538
-0.39574814
-0.14855601
0.1290487
-0.1463107
-0.39301148
-0.16292745
-0.40760288
0.29721186
-0.25508523
-0.46243256
0.14004032
0.39116314
-0.27239385
0.02468456
0.49591336
-0.20542467
0.13048775
0.35323018
0.048664913
0.21336973
0.36522835
0.10360631
-0.17393792
-0.13914424
-0.20173644
-0.0627971
-0.21982914
0.31686014
0.27331197
0.39682263
0.37873185
-0.42018887
0.22643535
-0.232873
0.016839176
0.16625574
0.20621322
0.46837243
0.21536674
-0.043056186
3.4787363E-4
-0.37955537
0.058829825
-0.21892335
-0.13352744
0.25923732
0.04901309
-0.031141214
-0.052074097
0.42856935
0.43088543
-0.14432968
-0.12147858
0.40064085
-0.10067045
0.419222
-0.22824833
0.46067616
0.26202536
0.54849094
-0.35782796
-0.10074278
0.12886173
0.32461777
-0.50792897
0.2586316
0.41958976
0.49479136
0.3410404
-0.3672203
0.106118456
-0.33361983
-0.16997392
-0.28560087
-0.12935568
-0.02029728
-0.27139157
0.097157925
-0.20006074
0.5439687
0.19204547
0.048767027
0.018691761
0.24442828
0.32545313
-0.14179492
-0.0343711
0.17207521
-0.15135635
0.51051307
-0.4299093
0.4232786
0.26033542
0.29149583
0.08353149
0.3229442
-0.37156707
0.21941236
0.39175448
-0.13332953
-0.25166163
-0.46067953
-0.0031268734
-0.18876559
-0.43887177
-0.43067092
0.4561532
-0.03358193
-0.11445869
-0.26786166
0.2377716
-0.024194907
-0.23964974
0.12540662
0.17207906
0.2442014
-0.16843148
-0.30255654
0.24260838
-0.42253584
0.16931298
0.18628469
-0.33603254
0.020135693
0.17267963
-0.09803755
-0.12849236
-0.3657047
0.44615027
0.023364462
0.22287312
0.39463693
0.345186
-0.29838505
0.33098435
0.34854785
0.046394203
0.29751638
0.20388678
-0.41281256
0.10009499
0.44951627
0.20123497
0.41871372
-0.035933163
0.39656708
0.25808838
0.2036467
0.30806354
0.23129791
-0.20041956
0.45853806
0.30857402
-0.42441565
0.25981265
0.45979762
0.35529906
0.33656204
0.26575544
-0.31561735
0.11608489
-0.2964319
-0.053234234
-0.3804274
-0.38049963
0.24801663
-0.30538905
-0.13216744
0.2872945
-0.030856887
-0.396985
-0.36110055
0.13156198
-0.26058978
0.39966226
0.21688716
-0.00102
0.44277477
0.32033774
-0.15690744
-0.40621814
-0.24085099
0.19249423
-0.049425326
-0.36229753
0.22613715
-0.33468196
0.3984787
-0.10811879
-0.20875035
-0.4051915
0.4660343
0.37560055
-0.025630353
0.26112726
-0.21673615
0.11927364
0.0043231226
0.51893514
-0.412981
-0.07317559
0.22228864
0.012521972
0.36764783
-0.06956163
-0.20311734
0.32987952
-0.18915838
-0.13052793
0.06949679
-0.05292468
0.18093067
-0.47071123
0.4599167
0.2964142
-0.25979325
0.029531874
-0.19615333
0.28265575
0.3519103
0.22081286
-0.17243877
0.103857465
-0.1637061
-0.30496347
-0.313956
0.34451294
-0.27387246
-0.37977704
-0.44828025
0.105435364
-0.1723051
0.1668989
0.20904744
-0.22581011
0.29964447
0.23330908
0.30093312
0.2236792
0.4456724
0.019352723
-0.40809712
0.2359935
-0.27987397
0.46187735
-0.35887447
0.3499841
-0.33703756
0.02718072
0.42120802
0.2589392
-0.14869395
-0.15834227
0.16788708
-0.07363739
0.39228356
0.17752172
0.35831022
0.10560377
0.2988654
-0.24728113
-0.33557856
-0.085479856
-0.24510698
0.034864146
-0.17156512
0.36071968
-0.064087845
-0.001082151
0.29425386
0.46141794
-0.37693617
-0.24033749
-0.31698334
0.24961719
0.080045044
0.025792213
0.3890423
0.5501238
-0.41760105
0.13066007
-0.13374819
-0.32577705
0.34431365
-0.016675273
-0.28489232
0.52217585
-0.16389409
-0.06945133
0.11568917
-0.2986458
0.13188498
-0.0015530088
-0.015224156
-0.0019485516
0.17448223
-0.36604264
0.15599008
0.10382321
0.23696984
0.49643752
0.4031699
0.062118046
0.45129958
-0.36861515
0.3784048
-0.39462736
-0.25771382
0.20463863
0.36791468
-0.40372008
0.3719796
0.23434018
0.0903752
0.16432676
-0.47762954
-0.28461105
-0.011833817
0.4790289
-0.3106051
-0.30684584
-0.22963758
0.20959252
0.34844366
-0.3324062
-0.040837463
-0.059580483
-0.10256957
-0.0977605
0.049600862
-0.22006589
-0.18306816
0.36843425
0.33519834
0.55088663
0.46387935
0.21441236
0.3809256
0.36841443
0.08099241
0.48301923
-0.25959456
0.49999306
0.1990218
0.46687862
0.15212123
0.0033175135
-0.013120351
0.24227738
-0.3560583
0.36756968
0.06869392
-0.32933888
0.3271375
-0.24833575
-0.07339781
0.33562276
-0.14434262
-0.44107026
-0.15787151
0.3310835
0.1288217
-0.22235382
-0.15971678
0.2149392
-0.34192985
0.08232628
-0.3862861
0.03218476
0.47152573
0.064286694
-0.41376337
0.39498237
-0.4221326
-0.10545377
0.15671857
0.19414584
0.17056055
0.13510638
0.028817674
0.5211069
0.4441664
0.016842261
-0.17484874
0.5177708
0.32487774
0.38778117
-0.2639977
0.3483655
0.27756634
0.42628568
0.041455712
0.3818672
0.057091687
0.39901483
-0.07756283
0.17894106
-0.31304622
-0.3372598
0.43255764
-0.244613
0.3490171
0.17310472
0.46197382
0.26834393
0.30834526
0.2504374
-0.04416195
0.30541632
-0.30107892
-0.4204296
-0.38233116
-0.15573981
0.040029746
-0.26295343
-0.22616592
-0.27175072
-0.03441098
-0.04384865
-0.42290545
-0.099161126
-0.133654
0.3094395
0.40834093
-0.29171777
-0.13107948
0.33453098
0.29951513
-0.10859201
-0.23953268
-0.16515516
-0.35092574
-0.23948331
-0.4030182
-0.40465316
0.29036656
0.16332991
0.47476506
0.5158048
-0.045680832
-0.41625106
0.12362823
0.07855764
-0.20151618
0.12676083
-0.30795938
0.35258818
-0.43468478
0.33218133
0.2019871
-0.3585437
-0.14238921
0.002585454
0.12535816
-0.09470813
-0.06373207
-0.13514987
-0.27184904
0.520404
0.35410726
-0.31392473
-0.32340416
0.37169182
-0.26949745
-0.3696204
-0.1866259
0.47460318
0.024941286
0.06480026
-0.23797679
0.057826705
-0.44503462
-0.26883554
-0.23898394
0.18390968
0.37553096
0.17741343
-0.31237242
-0.060099017
0.36088648
-0.3902612
0.052162685
-0.04501646
-0.22935893
-0.117888995
-0.39703292
-0.15635127
0.09224367
0.1616038
-0.21344818
0.074689016
0.18152936
-0.08056009
0.38661754
0.42467272
0.017397497
0.30014268
0.27906317
0.44753194
0.40839505
-0.44358158
0.40798533
-0.15458184
-0.2585773
0.26592392
-0.25997615
0.26587802
-0.38748023
0.18854235
0.19118854
0.06468596
-0.013350675
0.21339928
0.25010282
-0.025675
-0.30851576
-0.39313334
0.30083323
-0.030516576
0.52783966
-0.1402156
0.45223102
-0.2892444
-0.27904698
-0.20536268
0.018490938
-0.17716855
-0.09001935
0.23198137
-0.33601582
-0.16144867
0.3022114
0.3562271
-0.45970675
-0.33474916
-0.25639346
-0.2879333
0.26222426
-0.11433224
0.2656042
-0.5156498
0.26749325
0.14731368
0.210813
0.42103985
0.03811563
-0.2641797
-0.2664193
-0.1334731
0.24567123
-0.24439962
-0.0992505
0.4656167
-0.29756975
0.097695686
-0.27389285
0.12113987
-7.641283E-4
-0.41520935
0.28352642
-0.23654772
-0.08681329
-0.40951812
-0.19728039
-0.33693376
0.31752297
0.118500754
0.44140115
-0.52817875
-0.49311692
-0.20281033
0.24908742
-0.0868454
-0.43705085
-0.50445926
-0.3098171
0.058932107
-0.37130493
0.29952863
-0.021974381
0.42778984
-0.26626614
0.40038848
0.3859074
-0.28078178
0.119163916
0.04199798
-0.3512296
-0.14162868
-0.15281416
0.050029907
-0.45491564
0.16719277
-0.15149039
-0.37746125
-0.24149549
-0.09865565
0.46065497
7.715875E-4
0.158565
0.096524455
-0.059521586
0.357995
-0.28977504
-0.35111615
0.3961208
-0.2537225
0.3263961
-0.16540956
0.07635065
0.22176719
0.10986974
-0.0018338856
-0.01660066
0.3321473
-0.40526736
-0.009819924
0.32160515
3.947755E-4
-0.20105237
0.03647883
0.3940059
0.45465514
0.12093437
0.110289745
0.1674397
0.27074587
0.37748504
-0.4452022
-0.123778336
-0.22309469
-0.44911522
-0.35174796
-0.281495
0.032573093
0.19460034
0.08142279
-0.0627442
0.39880574
-0.2876268
-0.24037816
0.23943469
0.118782826
0.14617927
0.18030165
-0.12140141
-0.19592887
-0.41582197
-0.2363109
-0.50552243
-0.28409362
-0.3506987
-0.21873991
0.09822792
-0.4037178
0.037105434
0.2113753
-0.4645941
-0.43802157
-0.35155115
-0.19110973
0.08552047
-0.14006783
0.30237803
-0.12266083
-0.097556405
-0.2867637
-0.36047176
-0.45915377
0.22163783
0.1753213
0.4083721
0.40271673
-0.4273921
0.06042565
-0.006128475
0.25660416
-0.45497042
0.32374147
-0.29787484
-0.036848743
-0.26038066
-0.33594683
-0.055719867
0.1490249
0.16388044
0.30509263
0.29147545
0.3745062
0.45942548
-0.22773618
0.10487014
-0.432292
0.032708116
0.2738213
0.19545066
-0.22602503
0.048704557
0.40427583
-0.29279488
0.35123074
-0.5084795
-0.28156817
-0.44788912
-0.5225667
0.2555667
0.30479518
0.3524593
0.32371667
0.26440457
0.41986993
-0.2361716
-0.40346932
-0.23008265
-0.14967471
0.15114488
0.29073462
-0.0034869874
0.24043174
-0.40072855
-0.43810064
-0.38150746
0.3604091
-0.131873
-0.32899928
0.101495676
-0.4722805
0.4081757
0.31954762
-0.0039416873
0.11846335
0.35782605
0.1385664
-0.19809362
-0.44646385
-0.25685367
-0.2954747
-0.40783995
0.28890678
-0.15733708
-0.38097164
-0.40120125
-0.4144669
0.39429277
-0.4212418
-0.22628815
-0.19704139
0.15098861
-0.08146562
-0.022220397
0.05037941
0.41753998
-0.27936086
0.30273235
0.013787399
-0.098282956
0.43048522
0.4092598
-0.26211068
0.040272363
-0.47754022
-0.04067404
0.07562885
-0.281562
0.4155932
-0.13593596
0.25574905
0.08631805
-0.20249876
-0.48459587
-0.2718339
0.32723516
0.12562275
-0.21205007
-0.38919288
-0.16188629
0.04043265
-0.22608495
-0.022355622
0.25803247
-0.021147067
0.39488444
-0.38232014
0.15746522
0.029302401
0.19491696
0.011395009
-0.49186057
0.3287604
0.34010452
0.04800349
-0.03266441
-0.29460385
-0.20153292
0.032603648
0.025315233
0.23523653
0.0327427
-0.15656768
-0.4153665
-0.06401395
-0.347233
0.32592034
-0.28357202
-0.4537443
-0.494027
0.101100706
-0.19681484
-0.39175704
-0.09500067
0.19772388
0.38375738
-0.39284217
-0.30752802
-0.3390401
-0.3560217
0.30785197
0.36333352
-0.14632997
0.14783499
0.030553805
0.27360797
0.14999188
-0.28591818
-0.09523608
-0.430986
0.038560644
0.16807443
-0.45609945
-0.086817265
-0.34683186
-0.1960832
0.25332546
0.30543
0.318988
-0.25845644
0.34386835
-0.30211332
0.21814273
-0.3186999
0.12748505
0.20663947
-0.5072788
0.4629244
0.23172493
-0.103918105
-0.44648504
-0.10850161
-0.24114805
0.45606923
-0.013546398
0.29107097
-0.436566
-0.3122857
0.36456758
0.0800376
-0.055435058
0.47940764
0.32877952
0.053172916
0.13736312
-0.35663766
0.10970679
-0.29893035
-0.2180976
-0.050712444
-0.4302016
0.15115915
0.12908366
-0.27247474
-0.36017638
-0.11796577
0.464932
0.48368078
0.108530894
0.19538017
0.06659887
0.31951216
0.29078853
-0.021235399
-0.10248943
0.33412993
0.1766965
0.023577826
0.009371584
0.43284193
-0.44533584
0.28684843
0.05963591
-0.2625415
-0.52240676
-0.36190134
-0.44855645
0.020252971
0.028727548
-0.2927135
0.42150033
-0.2747136
-0.3250269
0.025998155
0.23326206
-0.20642501
-0.12536241
-0.40637907
-0.25880986
0.4993871
-0.2465341
-0.06762603
-0.24250345
-0.35516694
0.07437789
-0.47527257
-0.1518361
-0.34080914
-0.49618995
0.10910277
-0.07892003
0.19601585
-0.2936002
0.15854397
-0.42828533
0.08197408
-0.17050423
-0.1474083
-0.38774413
0.37381187
-0.023403205
0.086542174
0.32063878
0.40204066
-0.45493132
-0.48823917
-0.35336423
-0.4185757
-0.28429303
-0.38302687
-0.32728565
0.48157853
0.26645327
-0.0020636194
0.32440314
-0.05493478
-0.47000307
-0.16021273
-0.34445623
0.025112769
0.30800396
0.2149012
-0.2880702
0.4274303
0.45632493
-0.094920315
0.103706986
0.15988055
0.12041221
-0.022528004
-0.3934775
0.037568495
0.04729436
-0.40242523
0.49508289
0.46003702
0.045476418
-0.40738449
0.028851157
0.14120182
0.020227663
-0.38821465
0.23140588
-0.28884524
0.26849356
0.01885437
0.37251085
0.40699786
-0.121368304
0.036519576
0.24597342
0.21166928
-0.15020375
-0.39307594
-0.44821024
0.19116282
-0.037438437
-0.48403946
-0.4833664
0.46060258
0.4536458
0.2546304
-0.42795995
-0.11982855
-0.28178284
0.24124955
-0.45257002
0.4366061
0.0035649007
0.34316304
0.19735521
0.15140598
-0.19613816
-0.46040833
-0.34545392
-0.3732711
0.35532996
-0.21263373
-0.45747927
-0.11288189
-0.20975868
-0.28570914
0.11011952
-0.4437888
0.4170918
-0.462536
0.057263453
-0.41255414
0.10389926
0.30573335
-0.13725765
0.3032736
0.37727618
-0.3788481
-0.21142691
0.1426008
0.09890601
-0.49070168
-0.067728
-0.30106497
-0.45301315
0.34891096
-0.24630526
0.2684221
0.40641534
0.28674898
0.45043108
-0.1566232
0.25130743
0.049639884
0.08058986
-0.12515096
-0.26428035
0.3265155
-0.2992519
-0.15508518
-0.2458879
-0.26031852
-0.07337829
0.16729818
-0.2299329
-0.33526576
-0.3327294
0.16818945
0.3851088
-0.087560266
-0.2842289
-0.35387546
0.4571234
-0.30032173
0.20227262
0.18806548
0.42607936
0.21098249
-0.17898418
-0.27711585
0.018075215
-0.3993502
-0.1420929
-0.34220737
0.39187735
-0.2081865
-0.11501266
-0.1978007
-0.37362906
-0.36984897
-0.2430477
0.1652961
-0.45555457
0.16535276
-0.00989865
-0.19227462
-0.41782826
0.18570499
-0.4684949
0.34919858
-0.41858706
0.1332423
-0.04835681
0.014913426
-0.2354749
-0.5211526
-0.4344516
-0.4354055
-0.166128
-0.42875195
0.2915843
0.31872782
0.43171778
0.24125063
-0.4996688
-0.2437877
-0.24585108
-0.33158916
-0.44745317
0.35224018
0.47692704
0.37878856
0.121964574
0.29469612
0.39484757
0.10172597
-0.48395255
-0.22272405
-0.20937894
-0.08262225
-0.20321657
-0.3719415
-0.47911596
0.027587987
-0.43187767
0.32706612
-0.2216459
-0.16966556
-0.20815143
-0.3793625
0.32413176
0.14085484
0.113168396
-0.4688934
0.08122427
0.422043
0.19633606
0.03023664
-0.249655
-0.3324444
-0.051893674
0.39417997
-0.27039182
-0.49393815
-0.22682752
0.22511213
-0.08131564
0.326365
-0.4688654
-0.15940055
0.29653496
-0.07370338
-0.33408022
0.46066168
-0.51324373
-0.037555315
-0.32003123
-0.05250645
0.11841845
0.04674532
0.22633149
-0.13651085
0.07698159
0.16285619
-0.09570122
-0.11062599
0.21643868
0.45954582
0.2736022
0.007957841
-0.20909269
0.2548451
-0.09503046
-0.14312892
0.38074374
0.06658666
-0.236256
-0.30316347
-0.02065459
-0.29007044
-0.23151669
0.03540148
0.19602384
0.10224985
0.42431888
0.21113183
-0.22449107
-0.10014476
0.1887171
-0.3966717
-0.21009798
0.17914855
0.15316035
0.39999697
0.3574185
0.02279178
-0.09868462
-0.24561006
-0.4230631
-0.20980854
-0.12699097
0.07686432
-0.44265717
0.28417093
-0.07182799
-0.15488613
-0.39766428
-0.017023655
0.017611336
-0.5132842
0.44848824
-0.06900127
-0.48589545
0.25224543
0.24669133
0.14486872
-0.061661873
-0.2753292
0.44884413
-0.17438324
-0.094839245
-0.25635684
-0.15283926
-0.38525504
0.41681743
0.096739054
0.24674998
0.16174479
0.0060337223
0.0906044
-0.02840267
-0.006534728
-0.4556159
0.22696671
-0.060932472
-0.26891443
-0.31218365
0.3156625
-0.40305406
-0.37185943
-0.19809742
0.43302974
-0.08687723
-0.51933414
-0.121134415
0.34307653
-0.14898725
-0.06847468
-0.5148634
0.1618383
0.20759456
0.26251116
-0.19336976
0.13467862
0.35054246
-0.06140335
0.22009212
-0.06920112
-0.34197885
0.22004679
0.18791552
-0.283491
0.42184973
0.37324572
0.29236808
0.0735743
0.03751586
0.20503618
0.19376703
-0.39256024
-0.39169747
-0.16007355
-0.23188595
0.03154371
-0.139663
-0.032875583
0.3227708
0.41057056
0.16636969
0.027152602
-0.25974765
0.053985097
-0.40745097
0.16134568
-0.34865206
-0.26940373
-0.40788174
0.082419366
0.2411223
-0.38234776
-0.49402606
0.41909182
0.0957619
-0.32735643
0.34742624
-0.4996748
-0.4175669
-0.076771826
0.4285462
-0.023534317
-0.40425473
-0.48986334
0.28830174
0.18093492
0.17318581
0.18013826
0.0130484225
-0.3827109
0.3808883
0.32968506
-0.50624305
-0.48821127
0.08866216
-0.36953261
0.380114
-0.061598085
-0.26658288
-0.27287984
-0.50943196
-0.37478098
-0.0613083
-0.5050126
0.21868074
0.18173134
-0.101531886
-0.1405946
0.07533971
0.1897006
-0.19447562
0.27938604
-0.26962507
0.17416018
0.088801794
0.45765764
0.2500139
0.40619183
0.32513207
0.16748428
-0.07477077
0.039210923
-0.345509
-0.47360045
-0.10003505
-0.0038415093
0.10747775
0.35335666
0.23608279
-0.19600406
-0.052838795
-0.0840724
0.3089372
0.43100983
0.15013051
-0.3768412
0.45954734
0.065718025
0.4493857
-0.0058050263
-0.35701424
-0.3083939
-0.05911711
-0.46116436
0.40741283
0.2581154
0.11692458
0.02805243
-0.07124018
0.23111215
0.32082897
-0.043323517
-0.13014728
0.26486427
0.07559959
0.03156288
0.12685451
-0.044659063
0.38137656
-0.23260233
-0.33745384
0.37204355
0.12013628
0.30603236
-0.3791964
-0.473082
-0.049527317
0.20425928
0.09585851
-0.10901468
-0.35391217
-0.2302317
-0.20718417
0.11028453
0.4578855
6.2810525E-4
-0.056875117
-0.2002573
-0.12296862
-0.2889861
-0.37799832
0.30877012
0.010370816
-0.38857096
-0.15221915
-0.03686563
0.3648665
-0.27145308
-0.31005955
0.23876244
-0.5118415
-0.47327256
0.12647519
0.45243984
-0.46183318
-0.04146677
-0.42977002
0.3654723
-0.05316208
0.40070054
0.59281874
0.2507286
0.10157825
0.3881119
0.5239539
0.452878
0.797724
0.018835325
0.7120294
0.19430108
0.61828125
0.434803
-0.37891006
0.22868133
0.022450976
0.14575079
0.079030596
0.016587581
-0.2007677
-0.09017188
0.2964844
-0.086384244
0.345445
-0.12551388
-0.23046315
0.5365965
0.19472687
0.44175982
0.03887465
0.21044667
0.35263535
0.06401273
-0.23394644
0.23164698
0.31219655
0.014826605
-0.16824704
0.12683848
-0.4666877
0.0778891
0.1716652
-0.520312
-0.10019816
-0.3991822
0.2013461
-0.41749257
-0.34763217
0.44932848
-0.48432174
0.30426762
0.3514824
0.3731497
0.8566585
0.7572414
0.07217267
-0.12346894
-0.035348915
0.4703579
0.22957227
0.8295669
1.2159821
0.6661591
0.6643041
0.32599378
-0.3838585
-0.5266811
-0.37227628
-0.47136366
0.12831944
-0.34373754
0.12904161
0.40254915
0.06593822
-0.29217887
0.2453616
0.005504329
0.23480834
0.2402005
0.4388421
0.09956113
0.17791374
0.8368424
0.30668193
-0.2457574
0.1154594
-0.3697684
-0.11215802
-0.4109922
-0.34513783
-0.30606836
-0.27084088
-0.38632444
-0.04698364
0.2706658
-0.13969871
-0.11721113
-0.29921782
0.057396755
0.45551866
-0.35480022
-0.11951324
-0.099988826
0.1499129
0.18963906
0.19360472
0.29259005
-0.10496436
-0.0052069924
0.37355125
0.055343494
-0.35473368
-0.35913467
-1.0535446
-1.0260895
-1.3639274
-1.5511097
-1.1555932
-0.8610412
-1.1533898
-0.61562383
-0.031681027
-0.07041363
-0.17447667
0.17004761
0.07553986
-0.2477456
0.23280948
-0.45627886
-0.24879241
-0.11141201
0.03052195
-0.21168706
-0.015015564
0.29945853
-0.04652804
0.047850024
0.47274747
-0.29928187
0.25598717
-0.13910832
-0.64666605
-0.8087595
-0.4371558
-0.545802
-1.1767455
-1.3637154
-0.59168077
-0.43464184
-0.8316908
0.2994216
0.22940762
-0.23264241
-0.72277755
-0.30885977
-0.5112472
-0.14568573
-0.0058512227
-0.43581462
-0.4458171
-0.3404878
-0.18170583
0.1992989
0.3688282
-0.038618635
0.1969142
-0.31374213
-0.22662261
-0.81823635
-0.21850592
-0.9564541
-0.77513814
-0.93032384
-0.9304854
-1.0224001
-0.31075805
-0.67259234
0.14513588
-0.27950767
0.4046244
-0.034279473
0.050416615
-0.59241426
0.28574896
-0.42224592
-0.09591202
-0.50250334
-0.43281507
-0.5584673
0.15947598
-0.5171176
-0.03244217
-0.07108793
-0.26788425
-0.31711543
0.28861052
-0.13383333
-0.056764986
-0.4685235
-1.2080952
-0.937389
-0.33785093
-0.018301481
-0.47551686
-0.35695603
-0.6184525
-0.22381437
0.25095415
-0.501615
-0.53547144
-0.5246139
-0.043283172
-0.2266466
-0.20782417
-0.39597702
0.1761412
-0.40916514
-0.56480724
0.47011876
0.09321661
-0.08214846
0.0031982388
-0.13664024
0.002200441
0.29794762
-0.16673246
-0.4245971
-1.070603
-0.97843224
-0.29069433
0.3645342
0.40720695
0.41308784
-0.16311507
0.2921085
-0.12163925
-0.039383084
0.19507778
-0.031111173
-0.39783043
-0.26823813
0.32575464
0.1816952
-0.047400333
-0.4875845
-0.13988322
0.04944464
0.108759426
-0.3428167
-0.54603726
-0.0530864
0.19981478
0.42850843
0.91278344
-0.14734957
-0.21312852
-0.31303704
0.40854257
0.27987623
0.40782702
0.045987215
0.18834734
-0.15669101
0.46101063
0.16377993
0.018832456
-0.091631
-0.030348599
-0.2957002
0.11523969
-0.40026277
0.37815177
-0.18167818
-0.21540031
0.1641918
-0.2871896
0.10355648
-0.37717527
0.34673822
0.12399663
0.3768934
1.0851554
0.09181821
-0.058080073
0.7539811
0.27551657
0.64174914
0.464788
0.21335955
-0.2974994
-0.17714892
-0.23599932
0.39815027
-0.08014279
0.26621667
-0.30424458
-0.4447881
-0.26861143
-0.1750581
0.34810162
-0.21991551
-0.5006475
-0.18576092
-0.14008857
0.46104288
-0.12965982
-0.30771852
0.625375
1.5363282
1.4989272
0.21364257
0.18446553
-0.010639288
1.0725965
0.4907371
-0.30212042
0.4205567
0.4893545
0.07904965
0.21110575
0.23961353
0.058477893
0.03337279
-0.39914054
-0.2697032
0.09523786
-0.4084056
0.34743816
-0.2567488
-0.07742551
0.26268888
0.7530956
0.16042626
0.12631755
0.20658998
0.16683267
1.2514222
0.8978704
0.6142419
0.67944986
0.55259645
1.0505219
0.56427646
-0.15973637
-0.14353207
0.042557053
-0.20392928
0.6258401
-0.24814278
0.56802964
0.078398526
0.02357674
-0.29824322
0.40391415
0.35316747
0.12113508
0.18533656
0.16589975
0.3808101
0.012775446
-0.062364753
0.1965162
0.22464718
0.097001836
0.85851014
0.7740864
0.78079015
0.900407
0.8746543
0.82692593
-0.15510578
0.34047267
0.06458211
-0.23817444
-0.38844836
-0.12494912
-0.12160396
0.4796779
-0.29793662
0.17469332
-0.46148086
0.44315904
0.08783349
0.052847363
0.099967666
0.46765816
-0.22349152
-0.22048436
0.48494485
0.28971052
0.8912736
0.5100658
0.80484223
0.9317346
0.905569
0.5535379
1.1384883
0.4765219
0.46218354
0.14882047
0.08696167
-0.27202356
4.957093E-4
-0.036649734
-0.019571707
-0.19551575
0.566277
0.2806655
-0.06692376
0.29372036
0.027114324
0.30201435
0.48514685
-0.40238178
-0.03551731
0.16702567
0.39449915
0.6008414
0.9501875
1.2355621
0.9497066
1.2051122
0.8782085
0.9430569
0.19131659
0.52972776
0.35342255
-0.005995846
0.3626401
0.27200806
-0.048490852
0.6593611
0.11003856
0.6226357
-0.3299352
0.03745065
-0.43647456
0.07478198
-0.50822634
-0.44489712
0.47760493
0.5836657
0.34032622
0.09819959
-0.28946987
0.33020216
0.19552945
0.88590217
0.30177605
0.00688183
0.10600136
0.033170912
0.30098146
0.48994598
0.085898675
0.33787468
0.123068646
0.5644932
0.07183434
0.65523344
0.585498
0.7243196
-0.3642245
0.3436679
0.18875113
0.4263332
-0.33998847
0.20130044
0.21959418
-0.12929736
0.6435286
0.44522706
0.5757134
-0.09975714
0.557282
-0.3270479
-0.08177255
-0.0054946826
-0.3650435
0.14300773
0.067825496
0.6277781
0.56444997
0.40001902
0.252879
0.9300241
0.8891181
-0.04097076
0.6953577
0.5808093
0.44667152
-0.19119728
-0.19786021
0.0680015
-0.45096177
0.45279294
0.17832555
-0.13566445
0.030360619
0.087921284
-0.23176408
-0.36152866
-0.4007169
-0.32996005
0.2560344
0.005603774
0.40998083
-0.021505753
0.588162
0.06869955
0.9190032
0.6862926
0.08049242
0.02816094
0.7573818
0.76804596
-0.07524062
0.28565112
0.24764694
0.17026043
-0.3875305
-0.2855032
-0.47342247
0.08156911
0.22826788
0.09858702
0.08023424
0.40340924
-0.04172009
0.0765739
-0.29544297
-0.55079997
-0.18782946
0.16473126
-0.012323796
0.13236254
-0.5233315
-0.022834612
0.014360057
0.38519043
0.3572043
0.6747789
-0.05219806
0.5543224
0.3515605
0.325255
0.30877715
0.45228046
-0.22399786
0.1988835
-0.2975176
-0.48304212
-0.3231126
-0.23238464
0.11703574
-0.355729
-0.28613687
-0.36230403
-0.37486544
-0.1289981
-0.020848937
-0.45610306
-0.016554188
-0.6506157
0.060898863
-0.50961953
-0.4909251
0.70375806
-0.16251947
0.64455265
-0.31842715
0.39483637
-0.111542664
-0.1488536
0.09214086
0.0494631
0.15934083
-0.40832996
-0.11051204
-0.4169184
-0.2260975
-0.48393923
-0.39394876
0.1672375
-0.10334148
-0.5318434
0.2444602
-0.56715333
0.2912427
-0.063359834
0.27285734
-0.30673948
-0.28288373
0.22586055
-0.28269246
0.14844057
-0.50211304
-0.23606735
-0.15755002
-0.34971264
0.28549498
0.44491518
-0.051936075
0.18058813
0.03244545
-0.44945365
0.3579917
0.264417
-0.26391035
-0.2537601
-0.27664563
-0.5193488
0.23455574
-0.65473074
-0.6755903
-0.5292387
-0.72059333
-0.7566809
-0.964896
-0.43497545
-0.5398682
-0.20966223
-0.19054441
-0.69425493
0.1742555
-0.50462216
-0.5161345
-0.37739882
-0.15892157
-0.37701786
0.3689155
0.049525753
-0.3705877
0.040757135
0.37183213
-0.06580115
-0.2784596
0.4488691
-0.038428023
-0.3303643
0.22160505
-0.4128181
-0.5498151
-0.5648106
-0.054119945
-0.721456
-0.30687132
-0.5851873
-0.48128617
-0.46393046
-0.6667083
0.22349012
0.02720283
0.38027263
0.15054443
0.35738575
0.15924552
0.09813299
-0.39171547
-0.37535006
0.36545712
-0.055625297
-0.5320651
-0.21729702
0.18075997
0.1425685
0.35768557
-0.15762526
-0.26206666
-0.04040169
-0.16324395
-0.013054335
-0.3949746
0.013295821
0.41716528
0.35618818
0.35069048
0.32873705
-0.2103098
0.3344235
-0.33842832
-0.41149342
-0.18102717
0.15442973
0.19207385
0.4507717
0.16706282
0.11075627
0.053646207
0.0034620157
-0.27714717
0.28996968
-0.4172426
-0.39812404
0.35184234
-0.044423874
0.5363524
-0.33878732
0.240966
0.17577235
-0.15076195
-0.37812653
-0.1599812
0.29880172
0.53551215
0.48636127
0.29437703
0.14914818
0.009289778
0.35259038
0.4079635
-0.36881644
-0.35477722
-0.45088345
-0.29181504
-0.12617786
-0.17702319
0.27001062
0.07806827
0.10717179
-0.016116116
-0.23564999
0.42982185
-0.11463132
0.12759343
0.07373937
-0.06602916
-0.026366996
-0.39292347
0.031085825
0.38966322
0.20325859
0.04259436
-0.26519522
0.42394933
-0.13575774
-0.33251813
-0.0056225243
0.3418929
-0.24624233
0.44460282
0.30808717
-0.38523328
-0.17215545
-0.15367953
-0.2236226
0.18878071
0.5129572
0.27874202
-0.017828863
0.025539184
0.12700923
-0.25112402
0.27538362
0.5432203
0.5312056
0.5225845
0.08839585
-0.08107761
0.0900623
0.20399792
-0.12004937
0.53351295
0.24957365
-0.12784415
0.047540072
0.1858754
-0.44134706
-0.33652416
-0.3027403
0.1041239
-0.23383985
0.4575866
0.45966977
0.1816607
-0.30374324
0.12937436
-0.36480263
0.31041396
-0.039945617
0.16486114
-0.16455483
0.17477958
0.22251225
0.31845704
-0.053947307
0.37039337
-0.3567267
0.3763248
-0.32745573
0.26454133
0.34445748
0.016945353
0.11033156
0.5101379
0.16866808
0.21991597
-0.1287628
-0.09728506
-0.09886886
-0.2634263
0.024549332
-0.28995138
0.03386689
0.5289996
-0.37107983
0.36444798
0.5174915
0.23372106
0.060126513
0.10592005
-0.3798714
0.29219812
0.4389434
-0.123571254
-0.16168806
0.49508053
0.39303744
-0.42416814
0.026442237
0.2712503
-0.11141629
0.3266721
0.18494406
0.270595
-0.34979007
-0.32330662
0.4774825
-0.2790996
-0.14139964
0.2261235
-0.27338436
-0.1312293
0.50966775
-0.13488732
-0.13088912
-0.17446017
0.057243507
0.1605922
-0.19123812
-0.47183138
0.4119606
0.117111586
-0.32511204
0.2549413
-0.27043998
-0.43735778
-0.3211723
0.31332016
0.34994724
0.23571049
0.13894436
-0.21241356
-0.30657136
0.1317798
0.2076785
0.513703
0.35790122
0.48466575
-0.3332766
0.36155218
-0.047534697
0.5409172
0.018622667
0.17820212
-0.2527992
-0.023660745
0.40189734
0.34410924
0.4119462
-0.25495896
0.25632307
0.03117009
-0.38037184
0.20173095
-0.39053917
0.20332983
0.017711585
-0.33556542
-0.40280735
0.4499907
-0.36048502
-0.021215476
0.4744247
-0.271007
0.06272581
-0.06313764
0.2170917
-0.28981003
0.20071808
0.31437498
-0.25165173
0.30722663
-0.4480508
0.053975593
-0.021573223
-0.45729655
-0.34409684
-0.41602278
0.27136564
0.4133492
0.13817257
0.21593453
-0.078594916
-0.44875106
0.36444145
0.35813087
-0.25985807
-0.33155516
0.2167508
-0.20726094
-0.2593815
-0.06162561
-0.4021029
-0.3811655
0.44363397
-0.2512207
0.41514438
0.033068758
0.47333223
0.51749974
-0.36717352
-0.47776416
0.04856281
0.019844405
0.031480514
0.23299325
0.45387965
-0.44012105
-0.006107084
0.038700476
0.45135745
0.25758725
-0.15084389
0.3825302
0.46032152
0.05794315
-0.39566275
-0.076982796
0.15512186
-0.19251065
0.47592738
0.3046184
0.1702962
0.3332731
-0.27373677
-0.10347841
0.2855305
0.056320578
0.19916576
-0.22988394
0.23196425
-0.09924113
0.35640866
-0.10781324
0.37869224
-0.32354167
0.4264729
0.3584851
0.4189141
-0.4653749
-0.044075508
0.25669116
0.31648993
-0.10952507
0.096329175
-0.022456137
-0.14082454
0.35337678
0.35318428
0.07723288
0.02533025
0.039772738
0.0929724
0.06556305
0.48196915
-0.1784356
0.45175886
0.46210507
0.337594
-0.48777875
-0.14458884
-0.04216396
-0.3961606
-0.010908929
0.16340971
0.04744355
0.12047437
-0.47491428
0.23145671
0.33881027
-0.13750228
-0.025973715
0.30790403
-0.038831774
-0.016464766
0.21616386
0.33046246
0.073672995
0.41265655
0.21929571
-0.105357416
-0.38055095
-0.04777878
-0.4092457
0.4364577
0.34202492
-0.2187642
-0.18401559
0.36127394
0.26791206
-0.3818948
-0.08554984
-0.13623604
0.20820422
0.29853547
-0.13519956
0.012924447
0.35649082
0.010015763
0.07550323
-0.13182718
-0.068690695
-0.21932502
0.018901085
0.35885382
-0.018523376
0.0790198
-0.3325825
0.37246886
-0.1291253
-0.19614777
0.39421344
-0.1375275
-0.21293563
-0.33476526
-0.39621133
0.4577276
0.20415545
-0.044306662
-0.36911213
0.35289088
-0.20175958
0.26391414
0.3508855
0.115216464
-0.07322745
0.30490988
0.33956757
-0.28096604
0.07983827
-0.24052508
-0.21091624
-0.24953993
-0.09585301
-0.34996608
-0.39817363
-0.20738968
0.076308034
0.5123703
-0.35911512
-0.30678573
0.4715635
-0.46230337
0.18497849
0.008953907
-0.36317176
-0.04357972
0.16395685
-0.045312237
-0.2988801
-0.04432396
0.49176157
0.42114213
0.18388045
-0.04599565
0.31219232
-0.266996
0.33266625
0.08075317
0.033188198
0.20064758
0.4715078
0.18287306
-0.21215884
0.39176723
-0.07491494
-0.038784064
0.35839108
0.116736434
-0.33953252
-0.35191828
-0.41248965
0.39207757
0.2044678
-0.4826677
-0.09355104
-0.35140488
0.22363938
-0.18448794
-0.0029404352
-0.2538875
-0.04439912
-0.24181391
-0.12598796
0.4792399
0.03246003
-0.16699179
0.39277014
-0.3954867
-0.45109767
0.42322806
0.51985425
-0.18640606
-0.3398357
-0.44512913
0.22971097
0.061046887
0.20974751
0.07484973
0.18527977
-0.13348666
0.054991685
-0.44183224
-0.0696477
-0.07782468
-0.14590754
0.04686053
0.11772599
0.08710439
-0.40633354
-0.07321511
0.009721024
0.51339793
-0.07351116
0.13651799
-0.1338074
0.29499757
-0.40486464
0.06589432
-0.24512273
-0.13044633
0.4462881
-0.43077117
0.23704962
0.23633435
0.2701938
0.15187757
0.35280052
0.24193949
-0.18255293
0.3020146
-0.34824085
-0.42577705
-0.22877659
-0.22071938
-0.30314454
-0.3989785
0.48854306
-0.12164566
-0.43184522
-0.36654693
-0.4311837
0.3218691
0.35452655
0.1434984
-0.36573142
-0.10339984
-7.200448E-5
0.062323958
0.5116912
-0.3362793
-0.4005889
0.07706479
0.27451894
0.4708563
-0.0053461357
0.17426194
-0.3049374
0.0239953
0.3047217
-0.27749836
-0.2790788
0.13352844
0.0054087136
0.42609
0.21529762
0.07708344
0.05317649
-0.015803436
0.33362055
-0.30449602
-0.21673237
0.24612741
-0.05989823
0.24098122
-0.42110637
0.37185264
-0.22947
0.4092945
0.2234385
-0.12893726
0.47160196
-0.4882213
0.13838054
0.093032666
-0.18183774
0.21616367
0.19220187
-0.42326632
0.0829107
-0.018252658
-0.32555705
-0.39952365
-0.2963616
-0.015273416
0.27286166
-0.056506395
-0.40480894
-0.35953537
0.2634617
-0.33030474
-0.11527666
-0.3370449
-0.35517514
0.30626178
0.020830028
0.40703657
0.13688467
-0.429859
0.40286246
0.38452795
0.3421511
-0.2611343
0.2546699
0.43614602
0.22562708
-0.4792873
0.4739445
-0.16534345
-0.042843834
-0.01991455
0.28323302
0.031397354
0.03009331
0.09604924
0.1180563
0.0042761876
-0.31346408
-0.048770193
-0.026201295
0.34022412
-0.22457495
0.27752283
0.4264214
0.40917975
0.3922118
-0.3255614
0.34154975
-0.4500706
0.25839505
-0.09462624
-0.081644095
-0.3695829
0.13122551
0.3825827
-0.11767489
-0.17327602
0.027216576
0.28699693
0.06620836
0.38886285
0.0362596
0.47144955
0.5007815
-0.10093303
-0.20354427
-0.26666814
-0.1186577
-0.0010705534
0.15501262
-0.21201724
-0.232821
0.45976487
-0.2996646
-0.24758388
-0.29037753
0.26765954
-0.051677436
0.05906491
-0.4339561
-0.16169286
-0.3954021
0.46760774
0.2491576
0.4139525
0.42580667
-0.10586383
0.3233952
0.37524235
0.3631187
-0.1844752
0.48046437
0.18041818
0.15107581
0.07488082
0.30541134
-0.28850284
0.25678375
-0.14488463
0.028977068
-0.013327974
0.3160744
-0.16052988
0.37572855
-0.3987182
-0.43085676
-0.06582651
-0.17273645
0.45727593
0.058349665
0.3503286
-0.3543661
-0.021548577
-0.27498057
0.0031172205
0.4053031
-0.10029329
-0.010042793
0.17452551
0.09521016
-0.018152734
0.47142628
-0.39739674
-0.30615437
0.2545187
-0.44279575
0.53808385
0.1479193
0.24793784
0.032494023
0.29097337
0.22841632
-0.29090348
-0.35579887
0.29153305
0.037988286
-0.34918293
-0.019568505
0.114929624
0.34734645
-0.12984803
0.1956368
-0.42482904
0.3425178
0.33343676
0.416513
-0.36121607
0.1289378
-0.23888417
-0.3166573
-0.23629008
0.33531368
0.08341494
0.14961177
0.27564934
0.22362491
0.2887282
-0.10160416
0.17631914
-0.18615791
0.12808609
-0.3983235
0.30810001
-0.3435399
0.423101
-0.2973583
-0.035869624
-0.06845241
0.22641799
-0.051504802
0.20257567
-0.23711148
-0.11676015
0.37929046
-0.16092815
-0.11350978
0.36201802
0.4802608
0.003298642
-0.023927622
0.308931
0.16990417
0.098228425
0.14395729
0.15317553
-0.0136194285
-0.3763022
-0.44852912
0.51801467
0.23174503
0.05221698
0.2861505
0.3819728
0.13223056
-0.22725537
0.057815716
-0.007419868
-0.16322841
-0.3633266
-0.39245474
0.26342133
0.21105511
-0.085023455
0.20332025
-0.38772443
0.47918564
-0.27750915
0.0065965117
0.35942525
-0.2627928
-0.4124181
0.5316239
-0.38883275
0.522632
-0.26150188
0.009713104
0.39464507
-0.1201455
-0.010091077
-0.046089906
0.03549981
0.3283751
0.37521824
-0.1894049
0.26418495
-0.3871096
-0.36108792
0.17244403
0.25717878
0.06295036
0.52709293
-0.3321436
-0.0367185
0.0037218565
0.37411916
0.36475563
0.2791413
-0.40150815
-0.23835407
0.07801419
0.32721925
0.1874782
0.2471875
-0.14076814
-0.0437006
0.25666764
0.0039414708
-0.39294538
-0.24551721
-0.16885547
-0.07876657
-0.4405225
0.3249442
0.27238235
0.18647486
0.24462812
0.3050495
0.16215637
-0.386532
0.32137823
-0.36830688
0.20875524
-0.065060854
-0.4642079
-0.23987666
-0.21114206
-0.30376628
-0.45169556
-0.25896427
-0.33537188
0.14543945
-0.508598
0.07600746
0.40650216
-0.04011412
0.16523188
-0.5143709
-0.506918
-0.2653284
-0.28282627
0.074680544
-0.11348384
-0.05896485
-0.4675803
-0.07210308
0.15666258
0.1676681
-0.47788003
-0.46214885
-0.4270325
0.04597798
0.18363369
-0.1760099
0.16618216
-0.45607448
-0.057304293
0.047686733
-0.21519946
0.3751192
0.45160592
-0.24229334
-0.27280146
0.11579142
-0.28586495
0.011289771
-0.38223618
0.24734503
0.13555433
-0.4926414
-0.18691346
-0.2503272
-0.14579552
-0.059246175
-0.22624795
0.059540816
0.0024061508
-0.15805653
-0.48206806
0.1769144
-0.13587847
0.3996019
-0.5149951
0.4538584
0.25080138
0.28277594
-0.1195209
0.13291551
-0.20008957
0.27525276
-0.15169194
0.014966407
0.3158203
-0.38518012
-0.37807614
-0.26735872
-0.28071436
0.28848678
0.13726135
-0.029279057
-0.355832
0.18162356
-0.5181438
-0.32918173
0.251112
-0.10358407
-0.09354182
-0.38192448
0.31939635
0.2558876
0.11395102
0.12449541
0.31242704
0.009806637
-0.041678295
0.4480016
-0.33592105
0.008405905
-0.29977638
0.40543136
0.1920739
0.16854036
-0.5138555
0.19377519
0.20248413
-0.1249906
-0.24294543
-0.2411259
-0.46414474
0.09191517
-0.056998853
0.25241983
-0.41039637
0.33336732
-0.19988835
-0.123384856
-0.022038016
-0.21202883
-0.48267043
0.27613312
0.45565587
0.42795575
-0.15957029
-0.007450745
0.41507295
-0.42058444
0.17221679
-0.21187776
0.18916123
-0.48974085
-0.12024536
-0.34187284
0.21088518
-0.21675037
-0.321675
0.12460121
0.065381475
-0.06808466
-0.28427312
0.371491
-0.3771896
-0.2675574
0.058490876
0.2101245
-0.45727423
0.07653101
0.26791814
0.26714945
-0.12900725
-0.079946905
-0.39663985
-0.19110164
0.21835837
0.37837198
0.46886393
-0.31748632
-0.2563366
-0.34012657
-0.03158698
0.25821638
-0.020451339
0.5161113
-0.21583882
-0.3593687
-0.0367197
-0.25289816
-0.024809524
-0.3408456
0.19102821
-0.07589084
0.19946589
0.19825637
-0.43178356
0.07402415
0.2711624
0.029306747
-0.266062
-0.22363171
0.08706977
0.3718221
-0.19043973
-0.4304782
0.23580804
0.27374053
-0.16391067
-0.055306196
-0.2883298
0.14040942
-0.35259408
-0.41227207
-0.46558034
-0.28693688
-0.43127316
-0.017909478
-0.45204356
-0.072721
0.1563183
0.10405132
0.03644367
-0.40741757
-0.13025102
-0.12413526
0.208909
-0.392482
0.047532506
0.21656117
0.108000726
0.29570526
0.3039265
0.29270723
-0.055131152
-0.27519977
0.24083652
-0.31153563
0.010502217
0.27760455
-0.40647686
-0.13566884
0.3978679
-0.2840523
0.3335317
0.34488517
-0.33440617
-0.25705463
-0.51496917
-0.27372155
0.12790084
0.40370056
-0.32276422
0.019805875
0.17511855
0.11494663
0.30758682
0.09464072
-0.50806
0.25754854
0.041100744
0.4625601
0.07922678
-0.4532597
-0.25935373
0.33242294
-0.12610395
0.3239092
-0.19741182
-0.18004027
-0.14810002
-0.27967155
0.08300106
-0.39755717
0.2626784
-0.030929653
0.34451357
-0.18354025
0.22313684
0.37383875
-0.26287726
-0.28901097
0.15498826
-0.15391357
0.38527963
-0.08608575
0.29883313
-0.40248218
-0.18008682
-0.1425909
0.2564664
-0.13761847
0.21277101
0.3428714
-0.024361996
0.006014343
-0.40491232
0.25771427
-0.2992005
-0.26777083
-0.38379785
-0.39306483
0.15302342
-0.3552295
0.4143968
-0.014325271
-0.24297963
-0.36017254
0.07483419
-0.20729095
0.40013367
-0.22304077
-0.43657508
-0.024827981
0.46438867
0.007293402
0.365123
-0.097757734
0.09429583
-0.4003334
0.17958707
0.15497562
-0.08592992
0.17543177
-0.3133316
0.28334787
-0.061884772
-0.055867705
-0.34754202
0.10545868
0.4138358
-0.082902476
0.30354607
0.039568327
0.03288422
-0.48225385
-0.14288943
0.17545818
-0.13527592
-0.4714616
0.447468
-0.34180313
-0.20519818
-0.34739387
-0.30009305
-0.2282498
-0.31125182
-0.19056171
0.20284809
0.2144918
0.2742356
0.049584147
0.39427042
0.11778969
-0.30881664
-0.46204332
0.09371695
0.14986123
0.056102566
-0.4270686
-0.11687916
-0.34672737
0.03872521
-0.06499674
-0.25979543
0.2955346
-0.28371775
0.31147796
0.42545718
-0.01761937
-0.37910444
0.14366183
0.17397562
0.20656651
0.40311432
-0.4278775
-0.43667084
-0.2538791
0.060655583
-0.20430335
-0.2051532
0.43744868
-0.4127943
0.0070714545
-0.35722885
0.18943211
-0.40296686
-0.019660994
-0.52194005
0.13103922
-0.13392596
0.09928211
0.25512
0.0051725116
-0.51806706
0.1636477
-0.4494192
-0.3049888
0.4645308
0.3680291
0.10673453
0.3752455
-0.45123383
0.18520243
-0.10086094
-0.39300823
0.05067889
-0.1792168
0.13834417
-0.1822725
-0.23592567
0.024318824
0.14755118
0.25847894
0.3297902
0.008576266
0.2110407
-0.2118531
0.44423184
-0.47431853
0.16456564
0.09347208
-0.338393
0.13007578
0.15574217
0.21897052
-0.106776826
0.38500497
0.29300237
-0.084666975
0.4693564
0.09803511
0.010161319
0.29603824
-0.3388774
-0.22950348
0.067765385
-0.09941396
-0.05528032
0.21973845
-0.39017937
-0.27216962
0.028497498
-0.28568357
0.36727428
-0.024750764
-0.23566872
-0.4551916
0.32894427
0.40338776
-0.36007854
-0.18928044
0.10817996
-0.14598688
0.2834007
-0.035472475
-0.46676874
0.24506532
0.010958357
-0.28558925
-0.34846172
-0.39849985
0.3584538
0.4143077
0.16375104
-0.33768567
0.30400684
0.24904758
-0.4943189
0.3760001
-0.5180422
0.26841468
0.43445638
0.22154093
-0.05143216
-0.115955494
0.43986252
0.24635926
0.43972445
-0.045599625
0.47279745
-0.45891458
0.4181803
-0.4229153
-0.048050366
-0.21142569
-0.09724979
-0.27286175
0.07557469
0.24844718
0.19624615
0.23463681
0.094081596
0.03388441
-0.44093376
-0.15385044
0.08003078
-0.35445285
-0.39044756
-0.23323186
-0.51476645
0.3946844
0.41893476
-0.14738937
0.020162584
-0.480315
0.30495998
-0.49652123
-0.5024597
-0.23141013
-0.13024947
0.10059918
0.36783642
0.049223747
0.08749706
0.037293803
0.31002575
0.070702896
-0.34355548
0.30694076
-0.12211059
0.0887625
0.26699886
0.38207647
0.4604567
0.05221167
-5.678133E-4
0.15856928
-0.20723681
0.16772251
0.038406454
0.068346955
0.34761637
-0.3952854
0.18441133
-0.34947214
-0.01039528
-0.27424723
-0.29995522
0.36917907
-0.20404093
0.3317368
0.22847265
-0.023462184
0.31823665
0.14175029
0.18936811
0.06014941
0.25849286
-0.3507493
-0.22750723
-0.18530524
-0.13858955
-0.24462579
-0.47722968
-0.3195669
0.020173425
0.44338554
0.4345061
-0.4595653
0.4371685
-0.2345404
0.17763126
0.16745569
-0.24952182
0.07880523
0.4866713
0.23918442
0.12903991
-0.4025098
-0.27739862
-0.05139227
0.014948611
-0.44474843
0.031723797
0.09082991
-0.42398557
-0.014889325
-0.03498471
-0.28216913
-0.2583946
0.45626006
0.17836444
-0.31319842
-0.010599635
-0.28510582
-0.23011774
0.2663102
-0.086523145
0.37826183
-0.5350591
0.39856362
0.47274056
-0.4771835
-0.17250851
-0.32023478
-0.39105278
-0.201608
-0.03542961
0.13671464
-0.3445055
-0.0022779845
0.09792265
-0.073589645
-0.45215183
0.11442522
-0.070234984
0.15727326
-0.29722634
-0.2885511
-0.36631638
-0.15331474
-0.08921881
-0.35888338
6.187836E-4
0.31533435
-0.48040837
-0.09962019
-0.37291944
-0.17799208
0.4194865
0.11187011
0.19795777
-0.054052223
-0.35866496
0.2859397
0.1372607
0.057481736
0.2284482
-0.23206568
-0.3008104
0.5070301
0.34910417
-0.23363547
-0.09676615
0.17002091
-0.055791233
-0.28552392
-0.25083777
0.13033672
0.073155046
0.379507
0.15434462
-0.3468007
0.14189616
0.03622955
0.25699982
0.2617884
0.32239512
0.1838749
-0.27702728
0.41466135
-0.11287844
-0.016915465
-0.13569286
-0.37021473
-0.09339062
0.32642087
0.4548699
0.4648211
-0.45572913
-0.28933033
0.10395732
-0.41327733
0.35600522
-0.31968066
0.2553482
0.037649456
0.29897305
0.45638943
0.37350345
-0.28733954
-0.4155611
0.073073134
-0.48832625
0.28644904
0.4449696
-0.4994109
-0.41837412
0.2829933
-0.24410063
0.12900051
-0.18450464
0.12470191
-0.46436697
-0.39873293
0.03569772
0.23748714
-0.10235488
0.0836941
0.014467417
-0.3397021
-0.12245107
-0.2675239
-0.059741996
-0.09382928
0.019323893
0.15780422
0.3991131
-0.064447016
-0.104209
-0.15334883
-0.27963895
0.34279644
0.22407508
0.03927181
-0.13198186
0.022133652
0.23395321
0.3094489
-0.18003808
0.23941685
-0.5320224
-0.16611777
0.39182684
0.43525964
0.112641394
-0.3777608
-0.031525187
0.0579628
-0.5162573
0.21867932
-0.0047413274
0.07197548
-0.42083815
-0.40272132
-0.1800015
0.1997475
-0.15675691
0.24887827
0.33976212
-0.32603005
-0.17283764
-0.388834
0.28776416
-0.48381892
-0.2749638
-0.22738269
-0.34551913
-0.51917857
0.2771081
-0.09237297
0.16653576
-0.32810506
-0.016103994
-0.52720183
-0.43154734
-0.5101416
0.09388431
0.15915531
-0.108653635
0.024258994
0.36003122
-0.24194339
-0.21948755
0.20156038
0.13630903
-0.3861536
0.44804436
0.018805958
-0.013612081
0.09054483
-0.20470881
-0.032423045
-0.38940674
-0.47033966
-0.22223786
0.31729826
-0.4364749
-0.4933515
0.14037155
0.2704159
-0.073894076
-0.20120181
0.23687065
0.13239199
-0.16663262
0.3803852
-0.2306868
-0.45914903
-0.49437657
-0.08154589
-0.0732881
-0.509231
0.23044845
-0.2904228
-0.41193852
0.3608798
-0.44025442
-0.27381968
-0.03599427
0.39781782
-0.1608093
-0.5394353
0.29592457
0.14636406
0.07283621
-0.4484964
0.003867517
0.12701944
0.03680606
-0.24298684
-0.016722482
-0.34023264
-0.49141052
-0.3006118
-0.41585296
0.10442581
0.44888487
-0.05296868
0.17683959
0.034005575
0.07208794
0.5082675
0.19211596
0.19936901
0.18454015
-0.07983998
0.35914803
-0.35295063
0.024266535
-0.115449116
-0.38956678
-0.118613645
-0.03620003
-0.3054896
-0.35579336
0.21683353
-0.4254365
0.24610715
0.13167511
-0.25784442
-0.18070251
0.36200893
0.32476473
-0.23251286
0.15914002
0.08804152
0.5108261
0.15319613
0.21748316
-0.35719782
0.2818516
0.33734947
0.13114633
-0.3997053
-0.2621559
0.04810261
-0.11145416
-0.25525934
0.47210318
-0.23723027
0.34930697
0.25042173
0.23163709
0.37513128
-0.117411345
0.45546895
0.19933018
-0.25219512
0.0638747
0.08302487
-0.25350937
0.28948486
0.285712
0.27938962
-0.37697268
0.4979209
0.42385942
0.53726196
-0.30656725
-0.09737434
0.371386
-0.11903104
0.27449965
-0.43562663
-0.38071677
0.14535701
-0.46932918
-0.056803852
-0.17475063
-0.20974399
-0.46701932
-0.110403515
-0.46224982
-0.5380105
-0.14893103
0.11161785
-0.095480576
0.5140822
0.26435304
-0.12961033
0.2280618
-0.1865781
0.026251407
0.2437793
-0.05661857
0.49563617
-0.39876747
-0.4092664
-0.030839676
0.14230074
-0.14224435
0.016697386
-0.18397228
-0.20801644
-0.62354916
-0.30287272
-0.6724721
-0.13491182
-0.05724608
0.105758205
0.07780712
0.18355957
-0.19733894
0.32115656
0.07198871
-0.29638398
-0.1194468
0.042760465
0.48199046
0.13413496
-0.09442448
-0.35316336
0.042184312
0.23844449
0.29488528
-0.16234276
0.23046894
0.25777102
-0.52733994
-0.18231153
-0.6473966
-0.034527384
-0.36964706
-0.5020228
-0.31321037
-0.9250481
-0.56989324
-0.69945997
0.15511744
-0.09351359
-0.29756048
0.12241139
-0.30651793
-0.05071373
-0.14382523
-0.06915819
0.108206525
0.45831627
0.39020252
-0.25831
0.024667973
-0.20163566
0.3130567
0.12980002
-0.04737043
-0.38724244
0.13389271
-0.088581845
-0.17864063
0.008005339
-0.85160476
-0.043733798
-0.6899757
-0.53234106
0.24331729
-0.013681413
0.26435545
0.27479422
0.8857895
0.654835
0.86670566
0.8884125
0.16611634
0.10500132
0.048303977
0.02213248
0.24784844
0.47139126
0.3957622
0.46186274
0.28205827
-0.23603547
0.11545056
0.48213637
-0.4484906
-0.5548352
0.32709286
-0.5373183
-0.013286836
0.0077874376
-0.74969053
-0.85956764
-0.79387325
-1.3739599
0.049234018
-0.1958978
0.19839641
-0.0076178377
0.91658443
0.564586
0.52933365
0.17794962
0.5497855
0.16868585
0.4369706
-0.17082888
-0.31087536
0.46237487
0.17636348
-0.3600603
-0.15004836
-0.19185609
0.68913084
0.29194587
0.4298651
0.15706475
0.16754016
-0.45743683
-0.5668165
-1.1352172
-1.7613794
-1.4941636
-0.20522681
-0.3298833
0.08028288
0.4988853
0.09269216
0.35854658
0.78603774
0.60378826
0.6023618
0.3814261
0.41720235
0.43546015
-0.31821978
0.3425285
0.33928552
0.5030025
0.31893888
0.1567664
0.9589481
0.52541846
0.8058029
0.37139758
-0.043280955
0.3073214
-0.06092808
-1.2126976
-1.0185598
-0.32943636
0.280976
0.59494156
0.2361471
0.11634473
0.29177323
0.09977063
1.0318133
0.004092748
-0.16400976
-0.18457893
0.41455695
0.28646863
0.10761333
-0.2568643
0.37467578
-0.07572894
0.4247937
-0.08283619
0.7514199
0.9745264
0.90867203
0.4275415
1.0986174
0.2927869
0.08154043
-0.50646627
-0.07750269
-0.030564375
0.5415277
0.28941125
0.38268656
0.49487042
0.11636937
0.37792975
-0.09748013
0.13248283
0.3639873
0.28388613
-0.2029196
0.20493397
-0.30621082
-0.15994221
-0.2965267
0.1816441
0.19445282
-0.42806712
0.3289922
0.595143
0.35994086
0.88450795
0.87474316
0.84095734
0.46401528
-0.1803812
-0.4880716
-0.18786794
0.6266076
-0.075217076
-0.3182386
0.14407572
-0.09342262
0.13592017
0.49385116
0.6437412
-0.25695834
0.5195254
0.442537
-0.25782475
0.12642562
0.26801
-0.105540976
-0.161687
-0.031795904
0.30552635
0.14907409
0.23309897
0.42042196
0.3522849
0.96125805
1.0691613
0.30036306
-1.651558
-1.2502605
-0.55230474
0.33865416
-0.25304946
-0.18758476
-0.82118356
-0.4198911
-0.6484031
-0.120303944
-0.21611165
0.18630587
0.1443994
0.45266783
0.045154806
-0.3802926
0.55630106
0.022145422
-0.06735935
0.18884411
-0.26313862
-0.029759174
0.39506844
0.13701737
0.4714477
1.1840318
0.9193779
-0.19646333
-1.4916825
-1.8314219
0.10045709
-0.14973815
-0.5995471
-0.7839042
-1.0082632
-0.35391656
0.07165751
0.18530431
0.17372765
-0.0931299
-0.32957083
-0.37261248
0.35473865
0.0017470835
-0.31098938
0.30229184
0.24278703
-0.13003236
0.2316869
0.02410743
0.23398148
0.5108873
0.4212487
0.97434187
-0.2280266
-1.6010506
-1.2735097
-1.2573361
-0.58966684
-0.6307179
-0.6105497
-0.47061056
-0.13722463
-0.1085634
4.2113732E-4
0.60498255
-0.26255935
-0.47389695
0.066071026
0.061039753
0.47616887
-0.03394245
0.3629638
0.27218014
0.18423775
0.37536713
0.13098037
0.25420418
-0.037385393
0.8326337
0.63744396
0.6606613
-1.0276862
-0.92338777
-1.6801895
-0.91938287
-0.22284369
-0.3356276
-0.1773592
-0.19880985
0.75172985
0.1458553
0.8092503
0.39929816
0.17740603
0.39946434
-0.24784414
-0.20998213
-0.32525438
-0.31711656
-0.07594191
-0.43594068
-0.1413338
0.024189936
0.32427388
0.3587081
0.28645635
0.0039287503
0.5020493
-0.14755401
-0.5816141
-1.0945935
-0.537163
-0.63830674
0.14547734
-0.3952426
-0.02661753
0.5074561
0.62930864
0.90246314
0.64375436
0.74291486
0.27725777
-0.45497984
-0.46970993
-0.3113141
0.0803087
-0.188384
0.06273944
0.084749065
0.32584935
0.22378978
0.75875705
0.25584197
0.5191968
0.42989072
-0.09405001
-0.08702644
-1.3914942
-0.8801053
-0.63528746
-0.043175053
0.091486536
-0.1746401
0.4986434
0.50480545
0.62232506
0.21172811
0.05662579
0.25692526
0.043880746
-0.5267315
0.42273903
-0.10276603
-0.31896335
0.25866064
0.5081183
0.09806912
0.1520081
-0.032759905
0.30650708
0.31594667
0.11765447
-0.11690607
0.044246275
-0.7479545
-0.9077623
-0.4580552
-0.1910284
-0.5284995
0.05553687
0.14190754
0.8367219
0.12664273
0.03368833
0.09311988
0.120835245
0.30409053
0.33489266
-0.5187539
0.1613664
-0.25979966
-0.40717244
-0.38445383
-0.025267618
-0.42709753
-0.30125856
0.1322343
0.2135323
0.5291897
0.27628875
0.39782315
-0.1517764
-1.1641042
-0.8901964
-0.2208894
-0.10398775
-0.38361725
0.10898172
0.18650965
-0.2828026
-0.24922019
0.04440807
0.035277214
-0.3948679
-0.5053991
0.34661615
-0.5158822
0.14492759
-0.35823134
0.24513872
0.34368902
0.3670729
-0.51065296
-0.25058642
-0.5093684
0.30921948
0.18073376
-0.2544454
-0.29524806
0.10652281
0.1401325
-0.026888087
-0.29571775
-0.24501587
-0.20531347
-0.44613183
-0.46955028
0.016083296
-0.029415013
-0.59829354
-0.25358617
0.019136986
0.09783242
0.27956858
-0.38363588
-0.40095177
-0.3692524
-0.39537472
-0.03380398
0.063458934
-0.4548328
0.14132649
0.14466274
-0.45864582
-0.15110634
-0.5671179
0.12323399
-0.1401144
-0.06659072
0.52788526
0.11554765
-0.1143858
-0.11734637
0.10981486
-0.09498633
-0.5609646
-0.40542847
-0.4182658
-0.5482592
-0.40174356
-0.1423404
0.030722776
0.16264208
-0.32659474
-0.107339166
0.50451607
0.4088825
-0.4043277
0.07872
-0.25636956
-0.3421481
-0.36943975
-0.06153299
-0.09889294
0.027117366
0.5117394
0.31533134
0.21841171
0.6670207
-0.04989012
-0.06331912
0.44802845
0.01334435
0.37122142
-0.34906882
-0.047980882
-0.12194137
0.2583633
-0.35613137
0.15192267
0.49679568
0.030511143
-0.18831483
-0.4557829
-0.027631411
-0.19187132
-0.5203437
0.24397437
-0.4806041
-0.53114784
-0.5997379
0.022550968
-0.1540164
0.4219438
0.6690439
0.08833055
0.3547318
0.41481295
0.29335257
0.31790322
0.054580394
0.3219984
-0.2761128
0.32557082
0.03297287
0.24666847
-0.4849215
0.37833422
-0.08766158
0.3524174
-0.3866871
-0.093021415
-0.20503482
0.37286723
-0.11377876
-0.09615689
-0.46307284
-0.031176297
-0.31650674
-0.072706185
-0.24468888
0.5542137
-0.11014458
0.6151558
0.6416951
0.40393263
0.23208225
0.2007038
0.13988891
0.29632065
-0.5157464
-0.078523144
-0.33010554
0.31086296
0.16063839
0.18936694
0.41549867
-0.074025124
0.41734827
-0.21545142
0.46374434
-0.013515266
-0.35028654
0.18689604
0.07640067
-0.15520857
0.1689444
0.19692442
0.11977499
-0.059367858
0.082065456
-0.18157704
-0.03914443
0.23384105
0.027389536
0.002415557
-0.1356443
-0.069308005
0.10370108
-0.7964031
-0.3870478
-0.16415629
0.22115505
-0.36885113
-0.04365138
-0.42655838
-0.07307581
-0.087542675
0.27681255
0.121418744
-0.1623522
-0.20498404
-0.33830282
0.54495883
0.18214709
-0.20902367
-0.2663354
-0.047010317
-0.005734522
-0.53629684
-0.48563695
-0.63407695
-0.3182037
-0.46378708
-0.9420584
-0.104484774
-0.5878219
-0.021732053
0.15903804
-0.06690032
0.4354639
-0.24103329
0.07333754
0.52723587
-0.41794348
0.0014305661
-0.17180756
-0.12422645
-0.1275863
-0.03586124
0.4464155
0.54322004
-0.10469818
-0.13323522
0.36854836
0.27225462
-0.11580273
0.07544273
-0.28142074
-0.20841154
0.24421825
0.045894537
-0.19757436
-0.6940697
-0.4310796
-0.08291941
-0.10573449
0.33749533
0.34382468
0.46521187
-0.18303102
0.045930218
0.20379496
-0.39840037
-0.07373753
-0.080670424
0.36624086
-0.44082576
0.29014474
-0.02371321
0.054604392
0.33857256
0.029557774
-0.2569473
0.122663006
-0.39328507
-0.25873154
-0.059961222
0.4577853
0.50061125
0.1225584
0.05739383
0.20066014
-0.31171566
0.42235976
-0.086063616
0.40739822
-0.26687118
-0.27228224
-0.22894499
0.08562874
0.066049576
0.34160376
-0.07624373
0.3211506
0.26170835
-0.34914833
0.12054989
0.37807095
0.28192753
-0.37839532
0.40145952
0.31101203
-0.4032793
-0.37943405
0.39424926
-0.41674125
-0.31956804
-0.19044243
0.3557222
0.15076254
-0.3692565
-0.29528743
0.152323
0.042363845
-0.021761699
0.13221824
-0.057466406
0.048744794
-0.40299702
0.2980371
-0.02696271
-0.03269496
0.15735798
0.03829827
-0.33603668
0.123450816
-0.12327031
-0.24777842
0.26245156
-0.2987048
0.41857833
-0.059770353
-0.36920375
-0.31176662
-0.3459441
-0.18725176
-0.34514064
0.373954
-0.31089538
-0.18038498
0.020157376
0.120162874
0.005456467
-0.3356508
0.33232057
-0.026101125
-0.36963594
-0.2555967
-0.032300323
0.24208352
-0.44777727
-0.27605087
-0.42325896
-0.2551248
0.09741785
-0.41253644
-0.03694966
-0.15206419
-0.3059671
-0.44213784
-0.40349454
-0.22956398
-0.36262655
-0.03831629
-0.40528446
0.14356484
-0.29200983
0.14729364
0.16683848
0.35361338
-0.40045232
0.23212685
-0.009549111
-0.47521687
-0.41828257
-0.18609
-0.4218045
-0.15869464
-0.14278714
-0.19448625
-0.29933202
-0.12389024
-0.24510768
-0.16839492
-0.09833375
0.13964355
0.10108708
0.5250481
0.5042442
0.015576344
0.37141398
0.8386132
0.68069524
0.27193338
0.6785208
0.46591997
-0.16343312
0.055760883
0.4446736
0.2085341
0.12093167
-0.27495694
-0.0698277
0.18222196
-0.47976333
-0.088247955
-0.0665783
0.17350815
-0.09502059
-0.4999906
-0.17900023
-0.07962877
-0.012264678
-0.0634316
0.16832016
-0.27157238
-0.03413433
-0.32354626
-0.0603236
0.73539066
0.57869077
0.035761993
0.32977867
0.031730242
0.005192616
0.47112167
-0.40085727
0.13031583
0.28248626
0.4402187
0.06477654
-0.41284811
0.13432527
0.42444932
-0.29201686
-0.4180627
-0.57455176
0.3936519
0.52635634
-0.2562037
0.3489445
-0.6121109
-0.5075394
-1.541261
-1.0768436
-0.9221045
-0.47431734
-0.91991526
-0.07132192
-0.32848522
0.040296678
0.3675357
0.2727007
0.9650751
-0.02962809
-0.12979306
0.129382
-0.093469605
-0.27781153
0.022583948
-0.037863333
0.41104972
-0.4247806
0.022301419
-0.48769626
0.047269817
0.15092964
0.1992057
0.11203355
-0.03391591
-0.57009476
-0.8442318
-0.61517286
-0.6031681
-0.07460476
-0.44032624
-0.48187774
0.054176923
-0.20843834
0.2727659
0.23638968
1.0684353
0.8422135
0.61791474
-0.04783326
-0.13759081
0.4349931
0.32308537
0.21669659
-0.26309162
0.2551468
-0.07012485
-0.3754731
-0.13677835
-0.26056823
0.33048862
-0.08639792
0.42599463
-0.20820726
-0.094423175
-0.26584876
-0.28162763
-0.4841167
0.09871189
-0.7276861
-0.23977284
-0.16316958
-0.2571951
-0.08118975
0.15532304
0.35470358
0.0070226425
-0.19637512
-0.45121282
0.37980992
0.17316763
-0.39558876
0.4523095
-0.3281743
-0.34975332
-0.028663116
0.29102257
0.44076687
0.37235883
0.19199732
0.19330621
0.08470053
-0.003323312
0.1654619
-0.26180193
